

REPTree
============

fingertipElevation_f3 < 0.1
|   fingertipElevation_f5 < 0.05
|   |   numFingers < 1.5
|   |   |   fingertipElevation_f2 < 0.08
|   |   |   |   numFingers < 0.5 : G1 (109/36) [66/26]
|   |   |   |   numFingers >= 0.5
|   |   |   |   |   Max_X < -0.78 : G4 (7/3) [4/2]
|   |   |   |   |   Max_X >= -0.78 : G1 (26/6) [5/0]
|   |   |   fingertipElevation_f2 >= 0.08 : G2 (69/11) [38/6]
|   |   numFingers >= 1.5 : G4 (105/19) [53/8]
|   fingertipElevation_f5 >= 0.05
|   |   fingertipElevation_f2 < 0.97
|   |   |   numFingers < 1.5 : G3 (68/0) [31/0]
|   |   |   numFingers >= 1.5
|   |   |   |   Max_X < 0.5
|   |   |   |   |   fingertipElevation_f5 < 1.35 : G3 (9/0) [4/0]
|   |   |   |   |   fingertipElevation_f5 >= 1.35 : G7 (17/4) [5/0]
|   |   |   |   Max_X >= 0.5 : G7 (82/6) [42/4]
|   |   fingertipElevation_f2 >= 0.97 : G8 (84/0) [43/0]
fingertipElevation_f3 >= 0.1
|   fingertipElevation_f4 < 0.06
|   |   fingertipElevation_f5 < 0.54
|   |   |   Max_X < 0.5 : G5 (85/6) [41/6]
|   |   |   Max_X >= 0.5
|   |   |   |   numFingers < 2.5 : G0 (10/2) [3/1]
|   |   |   |   numFingers >= 2.5 : G5 (5/1) [2/0]
|   |   fingertipElevation_f5 >= 0.54 : G0 (82/0) [39/0]
|   fingertipElevation_f4 >= 0.06
|   |   numFingers < 3.5 : G6 (84/0) [40/0]
|   |   numFingers >= 3.5
|   |   |   numFingers < 4.5
|   |   |   |   fingertipElevation_f4 < 2.81
|   |   |   |   |   fingertipElevation_f3 < 2.63 : G9 (3/0) [2/1]
|   |   |   |   |   fingertipElevation_f3 >= 2.63 : G6 (4/1) [3/1]
|   |   |   |   fingertipElevation_f4 >= 2.81 : G9 (4/0) [2/1]
|   |   |   numFingers >= 4.5 : G9 (80/0) [44/0]

Size of the tree : 37

Time taken to build model: 0.1 seconds
Time taken to test model on training data: 0.03 seconds

=== Error on training data ===

Correctly Classified Instances        1249               89.2143 %
Incorrectly Classified Instances       151               10.7857 %
Kappa statistic                          0.8802
Mean absolute error                      0.0352
Root mean squared error                  0.1326
Relative absolute error                 19.5437 %
Root relative squared error             44.2083 %
Total Number of Instances             1400     


=== Detailed Accuracy By Class ===

                 TP Rate  FP Rate  Precision  Recall   F-Measure  MCC      ROC Area  PRC Area  Class
                 0.986    0.054    0.670      0.986    0.798      0.789    0.974     0.690     G1
                 0.643    0.013    0.841      0.643    0.729      0.711    0.963     0.693     G2
                 0.800    0.000    1.000      0.800    0.889      0.885    0.979     0.892     G3
                 0.979    0.025    0.811      0.979    0.887      0.878    0.988     0.826     G4
                 0.857    0.010    0.902      0.857    0.879      0.866    0.983     0.845     G5
                 0.921    0.002    0.985      0.921    0.952      0.948    0.994     0.966     G6
                 0.943    0.011    0.904      0.943    0.923      0.915    0.991     0.900     G7
                 0.907    0.000    1.000      0.907    0.951      0.948    0.995     0.953     G8
                 0.950    0.002    0.985      0.950    0.967      0.964    0.999     0.992     G9
                 0.936    0.002    0.978      0.936    0.956      0.952    0.995     0.966     G0
Weighted Avg.    0.892    0.012    0.908      0.892    0.893      0.885    0.986     0.872     


=== Confusion Matrix ===

   a   b   c   d   e   f   g   h   i   j   <-- classified as
 138   0   0   2   0   0   0   0   0   0 |   a = G1
  39  90   0  11   0   0   0   0   0   0 |   b = G2
  14   0 112   0   0   0  14   0   0   0 |   c = G3
   3   0   0 137   0   0   0   0   0   0 |   d = G4
   7  11   0   0 120   0   0   0   0   2 |   e = G5
   0   4   0   0   4 129   0   0   2   1 |   f = G6
   5   0   0   3   0   0 132   0   0   0 |   g = G7
   0   0   0  13   0   0   0 127   0   0 |   h = G8
   0   0   0   3   2   2   0   0 133   0 |   i = G9
   0   2   0   0   7   0   0   0   0 131 |   j = G0



=== Stratified cross-validation ===

Correctly Classified Instances        1229               87.7857 %
Incorrectly Classified Instances       171               12.2143 %
Kappa statistic                          0.8643
Mean absolute error                      0.0364
Root mean squared error                  0.1419
Relative absolute error                 20.2482 %
Root relative squared error             47.3028 %
Total Number of Instances             1400     


=== Detailed Accuracy By Class ===

                 TP Rate  FP Rate  Precision  Recall   F-Measure  MCC      ROC Area  PRC Area  Class
                 1.000    0.057    0.660      1.000    0.795      0.789    0.969     0.644     G1
                 0.593    0.010    0.874      0.593    0.706      0.696    0.937     0.700     G2
                 0.807    0.004    0.958      0.807    0.876      0.867    0.974     0.894     G3
                 0.921    0.017    0.854      0.921    0.887      0.874    0.978     0.862     G4
                 0.900    0.023    0.813      0.900    0.854      0.838    0.971     0.811     G5
                 0.893    0.002    0.977      0.893    0.933      0.927    0.966     0.925     G6
                 0.907    0.011    0.901      0.907    0.904      0.893    0.982     0.869     G7
                 0.929    0.004    0.963      0.929    0.945      0.940    0.996     0.964     G8
                 0.943    0.005    0.957      0.943    0.950      0.944    0.989     0.954     G9
                 0.886    0.002    0.976      0.886    0.929      0.923    0.990     0.955     G0
Weighted Avg.    0.878    0.014    0.893      0.878    0.878      0.869    0.975     0.858     


=== Confusion Matrix ===

   a   b   c   d   e   f   g   h   i   j   <-- classified as
 140   0   0   0   0   0   0   0   0   0 |   a = G1
  39  83   0   9   7   0   0   2   0   0 |   b = G2
  14   0 113   0   0   0  13   0   0   0 |   c = G3
   5   3   0 129   0   0   0   3   0   0 |   d = G4
   7   4   0   0 126   0   0   0   0   3 |   e = G5
   0   3   0   1   6 125   0   0   5   0 |   f = G6
   6   0   5   1   0   0 127   0   1   0 |   g = G7
   0   0   0  10   0   0   0 130   0   0 |   h = G8
   1   0   0   1   2   3   1   0 132   0 |   i = G9
   0   2   0   0  14   0   0   0   0 124 |   j = G0

