

REPTree
============

numFingers < 2.5
|   numFingers < 1.5
|   |   Max_X < 0
|   |   |   contourDistances67 < 0.44
|   |   |   |   contourDistances105 < 0.69 : G2 (54/1) [42/8]
|   |   |   |   contourDistances105 >= 0.69 : G3 (6/3) [7/3]
|   |   |   contourDistances67 >= 0.44
|   |   |   |   contourDistances148 < 0.48
|   |   |   |   |   Max_Y < 0.66
|   |   |   |   |   |   contourDistances125 < 0.48
|   |   |   |   |   |   |   contourDistances7 < 0.45 : G1 (10/2) [1/0]
|   |   |   |   |   |   |   contourDistances7 >= 0.45 : G2 (5/2) [5/3]
|   |   |   |   |   |   contourDistances125 >= 0.48
|   |   |   |   |   |   |   Max_X < -0.39 : G4 (3/0) [2/1]
|   |   |   |   |   |   |   Max_X >= -0.39 : G3 (6/1) [2/1]
|   |   |   |   |   Max_Y >= 0.66 : G2 (19/2) [5/1]
|   |   |   |   contourDistances148 >= 0.48 : G1 (94/13) [44/5]
|   |   Max_X >= 0
|   |   |   contourDistances145 < 0.62
|   |   |   |   contourDistances77 < 0.36 : G2 (3/2) [2/0]
|   |   |   |   contourDistances77 >= 0.36 : G3 (60/1) [25/2]
|   |   |   contourDistances145 >= 0.62
|   |   |   |   Max_Y < 0.53 : G1 (4/1) [0/0]
|   |   |   |   Max_Y >= 0.53
|   |   |   |   |   contourDistances83 < 0.44 : G5 (9/2) [5/3]
|   |   |   |   |   contourDistances83 >= 0.44 : G3 (6/2) [4/1]
|   numFingers >= 1.5
|   |   ratio < 0.01
|   |   |   Max_X < 0.12 : G4 (59/2) [25/1]
|   |   |   Max_X >= 0.12
|   |   |   |   contourDistances22 < 0.8 : G7 (59/6) [35/5]
|   |   |   |   contourDistances22 >= 0.8 : G8 (7/2) [4/2]
|   |   ratio >= 0.01
|   |   |   contourDistances109 < 0.4
|   |   |   |   Max_Y < 1 : G5 (65/2) [28/1]
|   |   |   |   Max_Y >= 1 : G2 (7/1) [1/0]
|   |   |   contourDistances109 >= 0.4
|   |   |   |   contourDistances93 < 0.41 : G5 (17/10) [6/3]
|   |   |   |   contourDistances93 >= 0.41
|   |   |   |   |   contourDistances102 < 0.75
|   |   |   |   |   |   contourDistances67 < 0.71
|   |   |   |   |   |   |   contourDistances15 < 0.44 : G4 (2/1) [1/0]
|   |   |   |   |   |   |   contourDistances15 >= 0.44 : G3 (18/1) [9/4]
|   |   |   |   |   |   contourDistances67 >= 0.71 : G8 (5/2) [0/0]
|   |   |   |   |   contourDistances102 >= 0.75 : G5 (6/3) [5/4]
numFingers >= 2.5
|   numFingers < 4.5
|   |   ratio < 0.01
|   |   |   contourDistances67 < 0.56
|   |   |   |   Max_X < 0.88
|   |   |   |   |   contourDistances56 < 0.54 : G0 (44/16) [18/6]
|   |   |   |   |   contourDistances56 >= 0.54
|   |   |   |   |   |   contourDistances46 < 0.7 : G8 (12/4) [6/1]
|   |   |   |   |   |   contourDistances46 >= 0.7 : G0 (35/3) [19/10]
|   |   |   |   Max_X >= 0.88
|   |   |   |   |   contourDistances146 < 0.56 : G7 (16/0) [9/4]
|   |   |   |   |   contourDistances146 >= 0.56 : G9 (7/4) [3/2]
|   |   |   contourDistances67 >= 0.56
|   |   |   |   contourDistances25 < 0.78
|   |   |   |   |   contourDistances96 < 0.36 : G6 (8/3) [4/4]
|   |   |   |   |   contourDistances96 >= 0.36
|   |   |   |   |   |   contourDistances12 < 0.34 : G6 (8/5) [4/2]
|   |   |   |   |   |   contourDistances12 >= 0.34
|   |   |   |   |   |   |   contourDistances144 < 0.62 : G8 (21/11) [8/2]
|   |   |   |   |   |   |   contourDistances144 >= 0.62 : G9 (5/1) [5/4]
|   |   |   |   contourDistances25 >= 0.78
|   |   |   |   |   contourDistances36 < 0.49 : G0 (8/3) [4/0]
|   |   |   |   |   contourDistances36 >= 0.49 : G8 (58/4) [25/3]
|   |   ratio >= 0.01
|   |   |   Max_Y < 1.08
|   |   |   |   contourDistances3 < 0.41
|   |   |   |   |   contourDistances26 < 0.88 : G6 (12/3) [3/0]
|   |   |   |   |   contourDistances26 >= 0.88 : G8 (3/0) [1/0]
|   |   |   |   contourDistances3 >= 0.41 : G6 (54/0) [29/3]
|   |   |   Max_Y >= 1.08
|   |   |   |   contourDistances82 < 0.5
|   |   |   |   |   contourDistances115 < 0.45 : G5 (8/2) [8/4]
|   |   |   |   |   contourDistances115 >= 0.45 : G7 (6/2) [3/2]
|   |   |   |   contourDistances82 >= 0.5 : G4 (24/4) [15/1]
|   numFingers >= 4.5 : G9 (80/0) [45/1]

Size of the tree : 81

Time taken to build model: 0.43 seconds
Time taken to test model on training data: 0.13 seconds

=== Error on training data ===

Correctly Classified Instances        1176               84      %
Incorrectly Classified Instances       224               16      %
Kappa statistic                          0.8222
Mean absolute error                      0.0495
Root mean squared error                  0.1573
Relative absolute error                 27.4968 %
Root relative squared error             52.4374 %
Total Number of Instances             1400     


=== Detailed Accuracy By Class ===

                 TP Rate  FP Rate  Precision  Recall   F-Measure  MCC      ROC Area  PRC Area  Class
                 0.943    0.017    0.863      0.943    0.901      0.891    0.990     0.860     G1
                 0.879    0.016    0.860      0.879    0.869      0.855    0.983     0.854     G2
                 0.886    0.015    0.867      0.886    0.876      0.862    0.985     0.901     G3
                 0.864    0.008    0.924      0.864    0.893      0.882    0.988     0.906     G4
                 0.879    0.027    0.783      0.879    0.828      0.810    0.977     0.882     G5
                 0.729    0.016    0.836      0.729    0.779      0.758    0.977     0.843     G6
                 0.779    0.015    0.852      0.779    0.813      0.795    0.977     0.814     G7
                 0.850    0.025    0.793      0.850    0.821      0.801    0.978     0.840     G8
                 0.950    0.010    0.917      0.950    0.933      0.926    0.996     0.969     G9
                 0.643    0.030    0.703      0.643    0.672      0.638    0.948     0.641     G0
Weighted Avg.    0.840    0.018    0.840      0.840    0.839      0.822    0.980     0.851     


=== Confusion Matrix ===

   a   b   c   d   e   f   g   h   i   j   <-- classified as
 132   2   4   0   2   0   0   0   0   0 |   a = G1
   8 123   3   0   5   1   0   0   0   0 |   b = G2
   4   4 124   1   6   0   1   0   0   0 |   c = G3
   1   3   1 121   1   1  10   2   0   0 |   d = G4
   2   8   0   0 123   2   1   1   1   2 |   e = G5
   1   1   3   1   6 102   1   2   0  23 |   f = G6
   2   2   2   5   1   1 109  11   3   4 |   g = G7
   0   0   0   3   3   4   2 119   3   6 |   h = G8
   3   0   0   0   0   1   0   0 133   3 |   i = G9
   0   0   6   0  10  10   4  15   5  90 |   j = G0



=== Stratified cross-validation ===

Correctly Classified Instances        1050               75      %
Incorrectly Classified Instances       350               25      %
Kappa statistic                          0.7222
Mean absolute error                      0.0658
Root mean squared error                  0.1976
Relative absolute error                 36.5341 %
Root relative squared error             65.8732 %
Total Number of Instances             1400     


=== Detailed Accuracy By Class ===

                 TP Rate  FP Rate  Precision  Recall   F-Measure  MCC      ROC Area  PRC Area  Class
                 0.836    0.024    0.796      0.836    0.815      0.795    0.950     0.802     G1
                 0.821    0.033    0.737      0.821    0.777      0.752    0.934     0.734     G2
                 0.814    0.037    0.713      0.814    0.760      0.733    0.943     0.713     G3
                 0.807    0.025    0.785      0.807    0.796      0.773    0.949     0.800     G4
                 0.721    0.029    0.737      0.721    0.729      0.700    0.925     0.734     G5
                 0.721    0.028    0.743      0.721    0.732      0.703    0.914     0.720     G6
                 0.707    0.021    0.786      0.707    0.744      0.719    0.911     0.746     G7
                 0.657    0.037    0.662      0.657    0.659      0.622    0.901     0.597     G8
                 0.921    0.002    0.985      0.921    0.952      0.948    0.973     0.951     G9
                 0.493    0.044    0.556      0.493    0.523      0.474    0.866     0.526     G0
Weighted Avg.    0.750    0.028    0.750      0.750    0.749      0.722    0.927     0.732     


=== Confusion Matrix ===

   a   b   c   d   e   f   g   h   i   j   <-- classified as
 117  13  10   0   0   0   0   0   0   0 |   a = G1
   7 115   9   0   7   0   0   0   0   2 |   b = G2
   9  10 114   1   2   0   1   0   0   3 |   c = G3
   4   3   4 113   6   1   6   1   0   2 |   d = G4
   4   8  14   3 101   2   0   7   0   1 |   e = G5
   0   3   2   6   2 101   0   7   0  19 |   f = G6
   3   2   2   8   5   2  99  10   0   9 |   g = G7
   0   0   1  10   3   7   7  92   1  19 |   h = G8
   3   0   0   0   0   1   2   5 129   0 |   i = G9
   0   2   4   3  11  22  11  17   1  69 |   j = G0

