

REPTree
============

numFingers < 2.5
|   numFingers < 1.5
|   |   cellOccupancyNonZ12 < 1763.5
|   |   |   cellOccupancyNonZ43 < 914.5
|   |   |   |   cellOccupancyNonZ31 < 1342
|   |   |   |   |   cellOccupancyAvg28 < 17.86 : G1 (4/0) [1/0]
|   |   |   |   |   cellOccupancyAvg28 >= 17.86
|   |   |   |   |   |   cellOccupancyNonZ12 < 334 : G6 (2/1) [1/0]
|   |   |   |   |   |   cellOccupancyNonZ12 >= 334 : G3 (2/0) [2/2]
|   |   |   |   cellOccupancyNonZ31 >= 1342
|   |   |   |   |   cellOccupancyNonZ54 < 2956
|   |   |   |   |   |   cellOccupancyAvg33 < 1.28 : G2 (62/1) [37/2]
|   |   |   |   |   |   cellOccupancyAvg33 >= 1.28
|   |   |   |   |   |   |   cellOccupancyNonZ18 < 814.5 : G2 (14/0) [5/0]
|   |   |   |   |   |   |   cellOccupancyNonZ18 >= 814.5 : G5 (5/0) [3/0]
|   |   |   |   |   cellOccupancyNonZ54 >= 2956 : G4 (5/0) [2/1]
|   |   |   cellOccupancyNonZ43 >= 914.5
|   |   |   |   cellOccupancyNonZ20 < 2519.5
|   |   |   |   |   Max_Y < 0.62 : G2 (7/4) [3/3]
|   |   |   |   |   Max_Y >= 0.62 : G5 (4/1) [1/0]
|   |   |   |   cellOccupancyNonZ20 >= 2519.5
|   |   |   |   |   cellOccupancyNonZ17 < 378 : G3 (18/0) [12/2]
|   |   |   |   |   cellOccupancyNonZ17 >= 378 : G1 (3/2) [1/0]
|   |   cellOccupancyNonZ12 >= 1763.5
|   |   |   cellOccupancyNonZ27 < 3128.5
|   |   |   |   cellOccupancyNonZ9 < 413.5
|   |   |   |   |   cellOccupancyNonZ20 < 2659.5 : G7 (3/1) [3/1]
|   |   |   |   |   cellOccupancyNonZ20 >= 2659.5 : G3 (46/2) [25/0]
|   |   |   |   cellOccupancyNonZ9 >= 413.5 : G2 (4/0) [2/0]
|   |   |   cellOccupancyNonZ27 >= 3128.5
|   |   |   |   cellOccupancyNonZ49 < 190.5 : G1 (94/7) [43/1]
|   |   |   |   cellOccupancyNonZ49 >= 190.5 : G3 (6/0) [3/0]
|   numFingers >= 1.5
|   |   ratio < 0.01
|   |   |   cellOccupancyNonZ29 < 3599.5
|   |   |   |   cellOccupancyAvg52 < 12.94 : G4 (65/6) [28/4]
|   |   |   |   cellOccupancyAvg52 >= 12.94 : G7 (10/5) [12/3]
|   |   |   cellOccupancyNonZ29 >= 3599.5 : G7 (50/4) [24/2]
|   |   ratio >= 0.01
|   |   |   cellOccupancyAvg13 < 5.54
|   |   |   |   Max_Y < 1 : G5 (83/11) [35/5]
|   |   |   |   Max_Y >= 1 : G2 (13/6) [6/4]
|   |   |   cellOccupancyAvg13 >= 5.54
|   |   |   |   cellOccupancyNonZ20 < 2573.5 : G8 (7/4) [2/1]
|   |   |   |   cellOccupancyNonZ20 >= 2573.5 : G3 (17/1) [7/2]
numFingers >= 2.5
|   numFingers < 4.5
|   |   cellOccupancyNonZ5 < 4.5
|   |   |   ratio < 0.01
|   |   |   |   cellOccupancyNonZ40 < 111
|   |   |   |   |   cellOccupancyNonZ12 < 2821 : G8 (7/3) [2/1]
|   |   |   |   |   cellOccupancyNonZ12 >= 2821 : G7 (11/1) [4/0]
|   |   |   |   cellOccupancyNonZ40 >= 111
|   |   |   |   |   Max_Y < 1.13
|   |   |   |   |   |   cellOccupancyAvg27 < 10.21
|   |   |   |   |   |   |   ratio < 0.01 : G0 (13/2) [6/1]
|   |   |   |   |   |   |   ratio >= 0.01 : G6 (19/4) [12/4]
|   |   |   |   |   |   cellOccupancyAvg27 >= 10.21 : G0 (44/3) [25/4]
|   |   |   |   |   Max_Y >= 1.13
|   |   |   |   |   |   cellOccupancyNonZ47 < 3593.5 : G0 (13/4) [7/3]
|   |   |   |   |   |   cellOccupancyNonZ47 >= 3593.5
|   |   |   |   |   |   |   cellOccupancyAvg48 < 12.08 : G8 (3/0) [1/0]
|   |   |   |   |   |   |   cellOccupancyAvg48 >= 12.08 : G9 (4/2) [3/2]
|   |   |   ratio >= 0.01
|   |   |   |   Max_Y < 1.08 : G6 (66/3) [31/2]
|   |   |   |   Max_Y >= 1.08
|   |   |   |   |   cellOccupancyAvg28 < 14.92 : G4 (11/1) [8/3]
|   |   |   |   |   cellOccupancyAvg28 >= 14.92 : G5 (8/2) [4/1]
|   |   cellOccupancyNonZ5 >= 4.5
|   |   |   cellOccupancyAvg21 < 8.5
|   |   |   |   ratio < 0.01
|   |   |   |   |   cellOccupancyNonZ43 < 1523.5 : G8 (46/0) [18/1]
|   |   |   |   |   cellOccupancyNonZ43 >= 1523.5
|   |   |   |   |   |   cellOccupancyNonZ15 < 186.5 : G8 (3/1) [1/0]
|   |   |   |   |   |   cellOccupancyNonZ15 >= 186.5 : G9 (7/0) [1/0]
|   |   |   |   ratio >= 0.01 : G4 (15/3) [11/1]
|   |   |   cellOccupancyAvg21 >= 8.5
|   |   |   |   cellOccupancyNonZ55 < 413.5
|   |   |   |   |   cellOccupancyNonZ26 < 834 : G7 (13/2) [3/1]
|   |   |   |   |   cellOccupancyNonZ26 >= 834 : G0 (9/1) [1/0]
|   |   |   |   cellOccupancyNonZ55 >= 413.5
|   |   |   |   |   cellOccupancyNonZ58 < 666.5 : G8 (31/5) [22/2]
|   |   |   |   |   cellOccupancyNonZ58 >= 666.5 : G7 (6/1) [4/1]
|   numFingers >= 4.5 : G9 (80/0) [45/1]

Size of the tree : 85

Time taken to build model: 0.4 seconds
Time taken to test model on training data: 0.09 seconds

=== Error on training data ===

Correctly Classified Instances        1245               88.9286 %
Incorrectly Classified Instances       155               11.0714 %
Kappa statistic                          0.877 
Mean absolute error                      0.0362
Root mean squared error                  0.1344
Relative absolute error                 20.085  %
Root relative squared error             44.8163 %
Total Number of Instances             1400     


=== Detailed Accuracy By Class ===

                 TP Rate  FP Rate  Precision  Recall   F-Measure  MCC      ROC Area  PRC Area  Class
                 0.971    0.008    0.932      0.971    0.951      0.946    0.995     0.935     G1
                 0.950    0.016    0.869      0.950    0.908      0.898    0.995     0.957     G2
                 0.921    0.007    0.935      0.921    0.928      0.920    0.991     0.937     G3
                 0.900    0.015    0.869      0.900    0.884      0.871    0.986     0.858     G4
                 0.879    0.016    0.860      0.879    0.869      0.855    0.988     0.855     G5
                 0.836    0.011    0.893      0.836    0.863      0.849    0.978     0.868     G6
                 0.864    0.017    0.846      0.864    0.855      0.839    0.979     0.853     G7
                 0.893    0.014    0.874      0.893    0.883      0.870    0.991     0.923     G8
                 0.964    0.004    0.964      0.964    0.964      0.960    0.999     0.988     G9
                 0.714    0.014    0.847      0.714    0.775      0.756    0.960     0.783     G0
Weighted Avg.    0.889    0.012    0.889      0.889    0.888      0.876    0.986     0.896     


=== Confusion Matrix ===

   a   b   c   d   e   f   g   h   i   j   <-- classified as
 136   0   3   0   1   0   0   0   0   0 |   a = G1
   3 133   1   1   1   0   0   0   1   0 |   b = G2
   4   3 129   0   2   0   2   0   0   0 |   c = G3
   0   3   0 126   1   1   7   2   0   0 |   d = G4
   1   4   2   1 123   1   2   0   1   5 |   e = G5
   0   1   0   4   7 117   0   1   1   9 |   f = G6
   1   0   2   5   1   2 121   6   0   2 |   g = G7
   0   1   0   5   0   1   7 125   0   1 |   h = G8
   0   3   0   0   0   0   1   0 135   1 |   i = G9
   1   5   1   3   7   9   3   9   2 100 |   j = G0



=== Stratified cross-validation ===

Correctly Classified Instances        1114               79.5714 %
Incorrectly Classified Instances       286               20.4286 %
Kappa statistic                          0.773 
Mean absolute error                      0.0555
Root mean squared error                  0.1846
Relative absolute error                 30.8319 %
Root relative squared error             61.5414 %
Total Number of Instances             1400     


=== Detailed Accuracy By Class ===

                 TP Rate  FP Rate  Precision  Recall   F-Measure  MCC      ROC Area  PRC Area  Class
                 0.907    0.013    0.882      0.907    0.894      0.883    0.971     0.864     G1
                 0.814    0.025    0.786      0.814    0.800      0.777    0.946     0.802     G2
                 0.850    0.026    0.783      0.850    0.815      0.794    0.948     0.790     G3
                 0.786    0.029    0.753      0.786    0.769      0.743    0.926     0.771     G4
                 0.757    0.025    0.774      0.757    0.765      0.740    0.922     0.789     G5
                 0.707    0.021    0.792      0.707    0.747      0.722    0.938     0.727     G6
                 0.764    0.024    0.781      0.764    0.773      0.748    0.938     0.725     G7
                 0.807    0.025    0.785      0.807    0.796      0.773    0.955     0.749     G8
                 0.893    0.002    0.984      0.893    0.936      0.931    0.982     0.964     G9
                 0.671    0.039    0.657      0.671    0.664      0.627    0.882     0.541     G0
Weighted Avg.    0.796    0.023    0.798      0.796    0.796      0.774    0.941     0.772     


=== Confusion Matrix ===

   a   b   c   d   e   f   g   h   i   j   <-- classified as
 127   4   5   1   2   0   1   0   0   0 |   a = G1
   4 114  13   3   3   0   0   0   1   2 |   b = G2
  10   4 119   2   1   0   2   0   0   2 |   c = G3
   1   6   1 110   5   2  10   2   0   3 |   d = G4
   0  13   3   6 106   7   0   0   0   5 |   e = G5
   0   2   2   2  10  99   1   4   0  20 |   f = G6
   1   0   4   8   0   0 107  12   0   8 |   g = G7
   0   1   1   8   0   0   8 113   1   8 |   h = G8
   1   0   0   3   0   0   5   5 125   1 |   i = G9
   0   1   4   3  10  17   3   8   0  94 |   j = G0

