

REPTree
============

fingersAreas < 15.7
|   numFingers < 2.5
|   |   cellOccupancyAvg12 < 7.05
|   |   |   cellOccupancyAvg50 < 0.01
|   |   |   |   contourDistances74 < 0.77
|   |   |   |   |   cellOccupancyAvg31 < 5.86 : G1 (7/4) [3/3]
|   |   |   |   |   cellOccupancyAvg31 >= 5.86
|   |   |   |   |   |   cellOccupancyAvg34 < 0.27 : G2 (60/1) [34/0]
|   |   |   |   |   |   cellOccupancyAvg34 >= 0.27
|   |   |   |   |   |   |   cellOccupancyAvg18 < 3.3
|   |   |   |   |   |   |   |   cellOccupancyAvg12 < 1.9 : G2 (18/0) [8/2]
|   |   |   |   |   |   |   |   cellOccupancyAvg12 >= 1.9 : G3 (2/0) [2/0]
|   |   |   |   |   |   |   cellOccupancyAvg18 >= 3.3 : G5 (9/3) [9/3]
|   |   |   |   contourDistances74 >= 0.77 : G4 (9/4) [1/0]
|   |   |   cellOccupancyAvg50 >= 0.01 : G3 (23/7) [7/1]
|   |   cellOccupancyAvg12 >= 7.05
|   |   |   cellOccupancyAvg26 < 0.58
|   |   |   |   cellOccupancyAvg9 < 1.56
|   |   |   |   |   cellOccupancyAvg20 < 13.34 : G7 (4/2) [3/1]
|   |   |   |   |   cellOccupancyAvg20 >= 13.34 : G3 (45/1) [28/1]
|   |   |   |   cellOccupancyAvg9 >= 1.56 : G2 (5/0) [2/0]
|   |   |   cellOccupancyAvg26 >= 0.58
|   |   |   |   contourDistances22 < 0.65
|   |   |   |   |   numFingers < 0.5 : G1 (12/1) [6/1]
|   |   |   |   |   numFingers >= 0.5 : G3 (16/3) [4/0]
|   |   |   |   contourDistances22 >= 0.65 : G1 (79/1) [40/1]
|   numFingers >= 2.5
|   |   ratio < 0.01 : G9 (85/2) [47/2]
|   |   ratio >= 0.01 : G6 (18/9) [14/9]
fingersAreas >= 15.7
|   ratio < 0.01
|   |   fingersAreas < 32.11
|   |   |   cellOccupancyAvg5 < 0.02
|   |   |   |   convexHull3 < 0.03
|   |   |   |   |   contourDistances1 < 0.58 : G7 (6/3) [0/0]
|   |   |   |   |   contourDistances1 >= 0.58 : G9 (5/2) [2/1]
|   |   |   |   convexHull3 >= 0.03
|   |   |   |   |   convexHull3 < 0.12 : G0 (69/10) [32/7]
|   |   |   |   |   convexHull3 >= 0.12
|   |   |   |   |   |   contourDistances25 < 0.84 : G6 (14/1) [13/6]
|   |   |   |   |   |   contourDistances25 >= 0.84 : G0 (10/4) [3/0]
|   |   |   cellOccupancyAvg5 >= 0.02
|   |   |   |   cellOccupancyAvg55 < 1.96
|   |   |   |   |   contourDistances32 < 0.68 : G8 (8/3) [6/2]
|   |   |   |   |   contourDistances32 >= 0.68
|   |   |   |   |   |   contourDistances1 < 0.47 : G7 (2/0) [1/0]
|   |   |   |   |   |   contourDistances1 >= 0.47 : G0 (10/0) [0/0]
|   |   |   |   cellOccupancyAvg55 >= 1.96 : G8 (64/1) [35/4]
|   |   fingersAreas >= 32.11
|   |   |   cellOccupancyAvg21 < 4.18
|   |   |   |   cellOccupancyAvg51 < 1.99 : G4 (53/2) [25/2]
|   |   |   |   cellOccupancyAvg51 >= 1.99 : G8 (7/2) [3/1]
|   |   |   cellOccupancyAvg21 >= 4.18 : G7 (83/11) [43/7]
|   ratio >= 0.01
|   |   numFingers < 2.5
|   |   |   contourDistances109 < 0.4
|   |   |   |   convexHull2 < 0.05 : G2 (5/0) [1/0]
|   |   |   |   convexHull2 >= 0.05 : G5 (66/2) [28/1]
|   |   |   contourDistances109 >= 0.4
|   |   |   |   contourDistances92 < 0.45 : G5 (23/15) [7/4]
|   |   |   |   contourDistances92 >= 0.45
|   |   |   |   |   cellOccupancyAvg20 < 13.74 : G4 (5/0) [3/2]
|   |   |   |   |   cellOccupancyAvg20 >= 13.74 : G3 (15/5) [9/6]
|   |   numFingers >= 2.5
|   |   |   cellOccupancyAvg62 < 0.54 : G6 (68/11) [30/5]
|   |   |   cellOccupancyAvg62 >= 0.54
|   |   |   |   contourDistances135 < 0.51 : G4 (18/1) [15/1]
|   |   |   |   contourDistances135 >= 0.51 : G8 (10/4) [3/2]

Size of the tree : 69

Time taken to build model: 0.51 seconds
Time taken to test model on training data: 0.14 seconds

=== Error on training data ===

Correctly Classified Instances        1210               86.4286 %
Incorrectly Classified Instances       190               13.5714 %
Kappa statistic                          0.8492
Mean absolute error                      0.0422
Root mean squared error                  0.1452
Relative absolute error                 23.4234 %
Root relative squared error             48.3977 %
Total Number of Instances             1400     


=== Detailed Accuracy By Class ===

                 TP Rate  FP Rate  Precision  Recall   F-Measure  MCC      ROC Area  PRC Area  Class
                 0.971    0.009    0.925      0.971    0.948      0.942    0.998     0.975     G1
                 0.929    0.002    0.977      0.929    0.952      0.948    0.995     0.968     G2
                 0.907    0.019    0.841      0.907    0.873      0.859    0.992     0.918     G3
                 0.836    0.010    0.907      0.836    0.870      0.857    0.979     0.861     G4
                 0.814    0.022    0.803      0.814    0.809      0.787    0.981     0.872     G5
                 0.829    0.033    0.739      0.829    0.781      0.757    0.970     0.758     G6
                 0.843    0.019    0.831      0.843    0.837      0.819    0.974     0.809     G7
                 0.836    0.015    0.860      0.836    0.848      0.831    0.983     0.884     G8
                 0.943    0.006    0.950      0.943    0.946      0.940    0.997     0.959     G9
                 0.736    0.017    0.831      0.736    0.780      0.759    0.963     0.768     G0
Weighted Avg.    0.864    0.015    0.866      0.864    0.864      0.850    0.983     0.877     


=== Confusion Matrix ===

   a   b   c   d   e   f   g   h   i   j   <-- classified as
 136   0   2   1   0   0   1   0   0   0 |   a = G1
   4 130   2   0   3   0   0   0   1   0 |   b = G2
   4   1 127   3   3   0   0   2   0   0 |   c = G3
   0   2   1 117   1   7  12   0   0   0 |   d = G4
   0   0   6   1 114  14   2   0   0   3 |   e = G5
   2   0   1   2   5 116   1   1   3   9 |   f = G6
   1   0   3   3   1   4 118   9   0   1 |   g = G7
   0   0   0   1   6   3   5 117   1   7 |   h = G8
   0   0   3   0   0   0   0   4 132   1 |   i = G9
   0   0   6   1   9  13   3   3   2 103 |   j = G0



=== Stratified cross-validation ===

Correctly Classified Instances        1097               78.3571 %
Incorrectly Classified Instances       303               21.6429 %
Kappa statistic                          0.7595
Mean absolute error                      0.0587
Root mean squared error                  0.1892
Relative absolute error                 32.6017 %
Root relative squared error             63.0654 %
Total Number of Instances             1400     


=== Detailed Accuracy By Class ===

                 TP Rate  FP Rate  Precision  Recall   F-Measure  MCC      ROC Area  PRC Area  Class
                 0.929    0.017    0.861      0.929    0.893      0.882    0.971     0.855     G1
                 0.857    0.021    0.822      0.857    0.839      0.821    0.934     0.801     G2
                 0.743    0.033    0.717      0.743    0.730      0.699    0.933     0.695     G3
                 0.736    0.021    0.792      0.736    0.763      0.738    0.925     0.793     G4
                 0.743    0.026    0.759      0.743    0.751      0.724    0.935     0.729     G5
                 0.736    0.032    0.720      0.736    0.728      0.697    0.911     0.685     G6
                 0.764    0.029    0.748      0.764    0.756      0.729    0.928     0.707     G7
                 0.750    0.026    0.761      0.750    0.755      0.728    0.934     0.764     G8
                 0.914    0.007    0.934      0.914    0.924      0.916    0.977     0.929     G9
                 0.664    0.029    0.715      0.664    0.689      0.656    0.912     0.616     G0
Weighted Avg.    0.784    0.024    0.783      0.784    0.783      0.759    0.936     0.757     


=== Confusion Matrix ===

   a   b   c   d   e   f   g   h   i   j   <-- classified as
 130   1   7   1   1   0   0   0   0   0 |   a = G1
   4 120   8   0   5   1   2   0   0   0 |   b = G2
  15   6 104   1   7   0   4   2   1   0 |   c = G3
   0   4   6 103   3   4  20   0   0   0 |   d = G4
   0   8   8   3 104  10   1   0   0   6 |   e = G5
   0   5   1   5   4 103   1   4   4  13 |   f = G6
   1   1   5   6   2   3 107  14   1   0 |   g = G7
   0   0   1   9   0   4   5 105   2  14 |   h = G8
   0   1   2   0   0   1   0   4 128   4 |   i = G9
   1   0   3   2  11  17   3   9   1  93 |   j = G0

