

REPTree
============

numFingers < 2.5
|   numFingers < 1.5
|   |   cellOccupancyAvg12 < 7.1
|   |   |   cellOccupancyAvg43 < 3.92
|   |   |   |   cellOccupancyAvg31 < 6.82 : G1 (7/4) [2/2]
|   |   |   |   cellOccupancyAvg31 >= 6.82
|   |   |   |   |   contourDistances74 < 0.77
|   |   |   |   |   |   contourDistances105 < 0.36
|   |   |   |   |   |   |   convexHull2 < 0.08 : G2 (12/0) [6/1]
|   |   |   |   |   |   |   convexHull2 >= 0.08 : G5 (6/1) [3/1]
|   |   |   |   |   |   contourDistances105 >= 0.36 : G2 (62/1) [39/4]
|   |   |   |   |   contourDistances74 >= 0.77 : G4 (5/0) [1/0]
|   |   |   cellOccupancyAvg43 >= 3.92
|   |   |   |   cellOccupancyAvg12 < 0.55 : G5 (12/8) [3/0]
|   |   |   |   cellOccupancyAvg12 >= 0.55 : G3 (20/3) [9/2]
|   |   cellOccupancyAvg12 >= 7.1
|   |   |   cellOccupancyAvg26 < 0.58
|   |   |   |   cellOccupancyAvg9 < 1.56
|   |   |   |   |   cellOccupancyAvg20 < 13.34 : G7 (4/2) [3/1]
|   |   |   |   |   cellOccupancyAvg20 >= 13.34 : G3 (40/1) [26/1]
|   |   |   |   cellOccupancyAvg9 >= 1.56 : G2 (5/0) [2/0]
|   |   |   cellOccupancyAvg26 >= 0.58
|   |   |   |   contourDistances22 < 0.65
|   |   |   |   |   Max_Y < 0.27 : G1 (13/2) [6/1]
|   |   |   |   |   Max_Y >= 0.27 : G3 (15/2) [4/0]
|   |   |   |   contourDistances22 >= 0.65 : G1 (78/1) [40/1]
|   numFingers >= 1.5
|   |   cellOccupancyAvg13 < 5.54
|   |   |   cellOccupancyAvg21 < 0.67
|   |   |   |   contourDistances126 < 0.64 : G4 (36/1) [18/0]
|   |   |   |   contourDistances126 >= 0.64 : G8 (4/1) [2/0]
|   |   |   cellOccupancyAvg21 >= 0.67 : G5 (107/33) [47/17]
|   |   cellOccupancyAvg13 >= 5.54
|   |   |   contourDistances68 < 0.68
|   |   |   |   cellOccupancyAvg20 < 14.03 : G7 (45/8) [21/2]
|   |   |   |   cellOccupancyAvg20 >= 14.03
|   |   |   |   |   cellOccupancyAvg56 < 0.99 : G7 (16/3) [13/3]
|   |   |   |   |   cellOccupancyAvg56 >= 0.99 : G3 (13/1) [3/1]
|   |   |   contourDistances68 >= 0.68 : G4 (24/5) [10/4]
numFingers >= 2.5
|   numFingers < 4.5
|   |   cellOccupancyAvg5 < 0
|   |   |   Max_Y < 1.09
|   |   |   |   cellOccupancyAvg40 < 0.35 : G7 (14/5) [7/3]
|   |   |   |   cellOccupancyAvg40 >= 0.35
|   |   |   |   |   convexHull2 < 0.1 : G6 (65/8) [25/4]
|   |   |   |   |   convexHull2 >= 0.1
|   |   |   |   |   |   contourDistances49 < 0.73
|   |   |   |   |   |   |   Max_Y < 1
|   |   |   |   |   |   |   |   cellOccupancyAvg35 < 4.67 : G0 (4/1) [3/0]
|   |   |   |   |   |   |   |   cellOccupancyAvg35 >= 4.67 : G6 (24/3) [13/0]
|   |   |   |   |   |   |   Max_Y >= 1 : G0 (11/1) [13/3]
|   |   |   |   |   |   contourDistances49 >= 0.73 : G0 (31/1) [13/4]
|   |   |   Max_Y >= 1.09
|   |   |   |   cellOccupancyAvg29 < 15.22 : G4 (16/6) [12/7]
|   |   |   |   cellOccupancyAvg29 >= 15.22
|   |   |   |   |   cellOccupancyAvg40 < 4.85 : G8 (10/5) [1/1]
|   |   |   |   |   cellOccupancyAvg40 >= 4.85
|   |   |   |   |   |   cellOccupancyAvg52 < 0.33 : G5 (11/4) [7/3]
|   |   |   |   |   |   cellOccupancyAvg52 >= 0.33 : G0 (13/3) [9/1]
|   |   cellOccupancyAvg5 >= 0
|   |   |   cellOccupancyAvg21 < 8.5
|   |   |   |   contourDistances84 < 0.56 : G8 (56/6) [19/6]
|   |   |   |   contourDistances84 >= 0.56 : G4 (15/4) [12/6]
|   |   |   cellOccupancyAvg21 >= 8.5
|   |   |   |   contourDistances20 < 0.72
|   |   |   |   |   cellOccupancyAvg26 < 2.11 : G7 (22/4) [9/3]
|   |   |   |   |   cellOccupancyAvg26 >= 2.11 : G0 (11/2) [4/3]
|   |   |   |   contourDistances20 >= 0.72 : G8 (26/4) [17/2]
|   numFingers >= 4.5 : G9 (80/0) [45/1]

Size of the tree : 71

Time taken to build model: 0.54 seconds
Time taken to test model on training data: 0.12 seconds

=== Error on training data ===

Correctly Classified Instances        1178               84.1429 %
Incorrectly Classified Instances       222               15.8571 %
Kappa statistic                          0.8238
Mean absolute error                      0.0512
Root mean squared error                  0.16  
Relative absolute error                 28.4385 %
Root relative squared error             53.3278 %
Total Number of Instances             1400     


=== Detailed Accuracy By Class ===

                 TP Rate  FP Rate  Precision  Recall   F-Measure  MCC      ROC Area  PRC Area  Class
                 0.964    0.009    0.925      0.964    0.944      0.938    0.997     0.969     G1
                 0.857    0.005    0.952      0.857    0.902      0.894    0.986     0.897     G2
                 0.850    0.009    0.915      0.850    0.881      0.870    0.983     0.896     G3
                 0.829    0.026    0.779      0.829    0.803      0.781    0.970     0.829     G4
                 0.921    0.053    0.658      0.921    0.768      0.751    0.970     0.672     G5
                 0.800    0.012    0.882      0.800    0.839      0.823    0.970     0.812     G6
                 0.857    0.027    0.779      0.857    0.816      0.796    0.970     0.776     G7
                 0.786    0.020    0.815      0.786    0.800      0.778    0.979     0.795     G8
                 0.886    0.001    0.992      0.886    0.936      0.931    0.994     0.954     G9
                 0.664    0.015    0.830      0.664    0.738      0.718    0.941     0.710     G0
Weighted Avg.    0.841    0.018    0.853      0.841    0.843      0.828    0.976     0.831     


=== Confusion Matrix ===

   a   b   c   d   e   f   g   h   i   j   <-- classified as
 135   0   1   1   2   0   1   0   0   0 |   a = G1
   2 120   3   0  14   0   0   1   0   0 |   b = G2
   5   2 119   1   5   0   6   2   0   0 |   c = G3
   0   2   2 116   7   0   8   5   0   0 |   d = G4
   0   1   1   4 129   0   2   1   0   2 |   e = G5
   2   1   0   3   9 112   1   3   0   9 |   f = G6
   2   0   2   1   7   2 120   6   0   0 |   g = G7
   0   0   0  15   2   0   6 110   0   7 |   h = G8
   0   0   0   6   3   0   1   5 124   1 |   i = G9
   0   0   2   2  18  13   9   2   1  93 |   j = G0



=== Stratified cross-validation ===

Correctly Classified Instances        1048               74.8571 %
Incorrectly Classified Instances       352               25.1429 %
Kappa statistic                          0.7206
Mean absolute error                      0.0647
Root mean squared error                  0.2008
Relative absolute error                 35.9611 %
Root relative squared error             66.9311 %
Total Number of Instances             1400     


=== Detailed Accuracy By Class ===

                 TP Rate  FP Rate  Precision  Recall   F-Measure  MCC      ROC Area  PRC Area  Class
                 0.907    0.013    0.882      0.907    0.894      0.883    0.962     0.832     G1
                 0.814    0.023    0.797      0.814    0.806      0.784    0.932     0.754     G2
                 0.743    0.039    0.680      0.743    0.710      0.677    0.918     0.667     G3
                 0.671    0.027    0.734      0.671    0.701      0.671    0.888     0.693     G4
                 0.693    0.019    0.802      0.693    0.743      0.719    0.905     0.747     G5
                 0.650    0.031    0.700      0.650    0.674      0.640    0.904     0.674     G6
                 0.671    0.033    0.691      0.671    0.681      0.646    0.914     0.632     G7
                 0.757    0.040    0.675      0.757    0.714      0.681    0.926     0.694     G8
                 0.914    0.003    0.970      0.914    0.941      0.935    0.980     0.959     G9
                 0.664    0.050    0.596      0.664    0.628      0.586    0.905     0.576     G0
Weighted Avg.    0.749    0.028    0.753      0.749    0.749      0.722    0.924     0.723     


=== Confusion Matrix ===

   a   b   c   d   e   f   g   h   i   j   <-- classified as
 127   1   8   1   1   0   1   1   0   0 |   a = G1
   4 114  14   3   3   0   0   1   0   1 |   b = G2
  11   4 104   0   4   1   8   5   0   3 |   c = G3
   0   7   4  94   5   3   7  16   0   4 |   d = G4
   1   7   7   4  97   8   1   1   0  14 |   e = G5
   0   4   1   7   3  91   2   2   1  29 |   f = G6
   1   5  11   5   1   3  94  14   2   4 |   g = G7
   0   0   0   9   1   1  15 106   1   7 |   h = G8
   0   0   1   3   0   0   2   5 128   1 |   i = G9
   0   1   3   2   6  23   6   6   0  93 |   j = G0

