

REPTree
============

numFingers < 2.5
|   numFingers < 1.5
|   |   silhouette15 < 127.77
|   |   |   silhouette29 < 199.75
|   |   |   |   silhouette5 < 116.95 : G2 (73/7) [43/6]
|   |   |   |   silhouette5 >= 116.95
|   |   |   |   |   silhouette2 < 86.78 : G5 (5/1) [3/0]
|   |   |   |   |   silhouette2 >= 86.78 : G3 (8/4) [1/1]
|   |   |   silhouette29 >= 199.75 : G4 (10/5) [4/2]
|   |   silhouette15 >= 127.77
|   |   |   silhouette10 < 126.5
|   |   |   |   silhouette4 < 52.68
|   |   |   |   |   silhouette22 < 135.62 : G3 (6/0) [7/1]
|   |   |   |   |   silhouette22 >= 135.62 : G2 (12/0) [5/1]
|   |   |   |   silhouette4 >= 52.68 : G3 (53/7) [28/4]
|   |   |   silhouette10 >= 126.5
|   |   |   |   silhouette32 < 160.38
|   |   |   |   |   numFingers < 0.5 : G1 (15/1) [4/1]
|   |   |   |   |   numFingers >= 0.5 : G3 (22/6) [7/2]
|   |   |   |   silhouette32 >= 160.38 : G1 (75/2) [42/1]
|   numFingers >= 1.5
|   |   silhouette18 < 125.32
|   |   |   silhouette13 < 81.74
|   |   |   |   silhouette25 < 178.7 : G7 (5/1) [3/1]
|   |   |   |   silhouette25 >= 178.7 : G4 (17/3) [8/2]
|   |   |   silhouette13 >= 81.74
|   |   |   |   silhouette1 < 88.84 : G5 (78/12) [35/7]
|   |   |   |   silhouette1 >= 88.84 : G0 (15/9) [5/2]
|   |   silhouette18 >= 125.32
|   |   |   silhouette15 < 95.93
|   |   |   |   silhouette3 < 106.86 : G4 (35/0) [17/0]
|   |   |   |   silhouette3 >= 106.86
|   |   |   |   |   silhouette19 < 134.72 : G7 (4/0) [3/1]
|   |   |   |   |   silhouette19 >= 134.72 : G8 (9/4) [2/1]
|   |   |   silhouette15 >= 95.93
|   |   |   |   silhouette1 < 79.03 : G4 (14/8) [1/1]
|   |   |   |   silhouette1 >= 79.03
|   |   |   |   |   silhouette25 < 189.19 : G7 (42/1) [28/4]
|   |   |   |   |   silhouette25 >= 189.19
|   |   |   |   |   |   silhouette19 < 151 : G7 (10/2) [4/3]
|   |   |   |   |   |   silhouette19 >= 151
|   |   |   |   |   |   |   silhouette4 < 155.41 : G8 (2/0) [1/0]
|   |   |   |   |   |   |   silhouette4 >= 155.41 : G3 (14/1) [7/3]
numFingers >= 2.5
|   numFingers < 4.5
|   |   silhouette17 < 129.95
|   |   |   silhouette19 < 157.99
|   |   |   |   silhouette1 < 93.24
|   |   |   |   |   silhouette13 < 192.47
|   |   |   |   |   |   silhouette4 < 69.41
|   |   |   |   |   |   |   silhouette32 < 55.66 : G6 (16/3) [11/8]
|   |   |   |   |   |   |   silhouette32 >= 55.66 : G5 (8/2) [3/1]
|   |   |   |   |   |   silhouette4 >= 69.41
|   |   |   |   |   |   |   silhouette12 < 169.55
|   |   |   |   |   |   |   |   silhouette1 < 61.53 : G0 (6/2) [2/0]
|   |   |   |   |   |   |   |   silhouette1 >= 61.53 : G6 (45/3) [21/2]
|   |   |   |   |   |   |   silhouette12 >= 169.55
|   |   |   |   |   |   |   |   silhouette7 < 110.05 : G0 (6/1) [0/0]
|   |   |   |   |   |   |   |   silhouette7 >= 110.05 : G5 (2/0) [3/2]
|   |   |   |   |   silhouette13 >= 192.47 : G0 (7/0) [2/1]
|   |   |   |   silhouette1 >= 93.24
|   |   |   |   |   silhouette7 < 91.31 : G0 (32/3) [15/3]
|   |   |   |   |   silhouette7 >= 91.31
|   |   |   |   |   |   silhouette5 < 69.71 : G0 (13/2) [8/2]
|   |   |   |   |   |   silhouette5 >= 69.71 : G6 (23/2) [11/1]
|   |   |   silhouette19 >= 157.99
|   |   |   |   silhouette2 < 174.54
|   |   |   |   |   silhouette13 < 74.61 : G4 (16/0) [8/0]
|   |   |   |   |   silhouette13 >= 74.61
|   |   |   |   |   |   silhouette5 < 81.78 : G0 (6/0) [7/4]
|   |   |   |   |   |   silhouette5 >= 81.78 : G9 (6/3) [1/0]
|   |   |   |   silhouette2 >= 174.54 : G8 (9/0) [2/1]
|   |   silhouette17 >= 129.95
|   |   |   silhouette15 < 121.56 : G8 (60/9) [38/9]
|   |   |   silhouette15 >= 121.56
|   |   |   |   silhouette9 < 125.75
|   |   |   |   |   silhouette1 < 143.92
|   |   |   |   |   |   silhouette6 < 14 : G6 (3/2) [1/0]
|   |   |   |   |   |   silhouette6 >= 14
|   |   |   |   |   |   |   silhouette32 < 153.06 : G8 (12/3) [3/0]
|   |   |   |   |   |   |   silhouette32 >= 153.06 : G7 (2/0) [1/0]
|   |   |   |   |   silhouette1 >= 143.92 : G7 (31/6) [8/1]
|   |   |   |   silhouette9 >= 125.75
|   |   |   |   |   silhouette28 < 173.87 : G0 (10/2) [2/0]
|   |   |   |   |   silhouette28 >= 173.87
|   |   |   |   |   |   silhouette5 < 31.34 : G0 (2/0) [2/0]
|   |   |   |   |   |   silhouette5 >= 31.34 : G8 (14/1) [15/8]
|   numFingers >= 4.5 : G9 (80/0) [45/1]

Size of the tree : 89

Time taken to build model: 0.18 seconds
Time taken to test model on training data: 0.05 seconds

=== Error on training data ===

Correctly Classified Instances        1194               85.2857 %
Incorrectly Classified Instances       206               14.7143 %
Kappa statistic                          0.8365
Mean absolute error                      0.048 
Root mean squared error                  0.155 
Relative absolute error                 26.692  %
Root relative squared error             51.6643 %
Total Number of Instances             1400     


=== Detailed Accuracy By Class ===

                 TP Rate  FP Rate  Precision  Recall   F-Measure  MCC      ROC Area  PRC Area  Class
                 0.936    0.004    0.963      0.936    0.949      0.944    0.995     0.954     G1
                 0.850    0.011    0.895      0.850    0.872      0.858    0.983     0.854     G2
                 0.886    0.023    0.810      0.886    0.846      0.830    0.983     0.834     G3
                 0.779    0.017    0.838      0.779    0.807      0.788    0.972     0.869     G4
                 0.800    0.020    0.818      0.800    0.809      0.788    0.971     0.767     G5
                 0.786    0.017    0.840      0.786    0.812      0.792    0.971     0.826     G6
                 0.864    0.016    0.858      0.864    0.861      0.846    0.980     0.858     G7
                 0.936    0.029    0.784      0.936    0.853      0.840    0.985     0.819     G8
                 0.914    0.003    0.970      0.914    0.941      0.935    0.996     0.964     G9
                 0.779    0.025    0.779      0.779    0.779      0.754    0.960     0.774     G0
Weighted Avg.    0.853    0.016    0.855      0.853    0.853      0.837    0.979     0.852     


=== Confusion Matrix ===

   a   b   c   d   e   f   g   h   i   j   <-- classified as
 131   1   7   0   0   0   1   0   0   0 |   a = G1
   1 119   7   6   4   1   0   0   0   2 |   b = G2
   3   2 124   5   0   0   2   2   0   2 |   c = G3
   0   1   3 109   5   3   3  12   0   4 |   d = G4
   0   8   3   4 112   4   3   0   0   6 |   e = G5
   0   2   0   1  11 110   2   4   1   9 |   f = G6
   1   0   7   1   0   1 121   5   2   2 |   g = G7
   0   0   0   0   1   1   1 131   0   6 |   h = G8
   0   0   0   3   0   1   2   6 128   0 |   i = G9
   0   0   2   1   4  10   6   7   1 109 |   j = G0



=== Stratified cross-validation ===

Correctly Classified Instances        1029               73.5    %
Incorrectly Classified Instances       371               26.5    %
Kappa statistic                          0.7056
Mean absolute error                      0.0692
Root mean squared error                  0.205 
Relative absolute error                 38.4255 %
Root relative squared error             68.3187 %
Total Number of Instances             1400     


=== Detailed Accuracy By Class ===

                 TP Rate  FP Rate  Precision  Recall   F-Measure  MCC      ROC Area  PRC Area  Class
                 0.850    0.010    0.908      0.850    0.878      0.866    0.970     0.908     G1
                 0.814    0.033    0.731      0.814    0.770      0.745    0.958     0.768     G2
                 0.743    0.040    0.671      0.743    0.705      0.672    0.913     0.654     G3
                 0.736    0.028    0.746      0.736    0.741      0.712    0.921     0.748     G4
                 0.693    0.025    0.758      0.693    0.724      0.696    0.901     0.680     G5
                 0.721    0.044    0.647      0.721    0.682      0.646    0.899     0.637     G6
                 0.629    0.039    0.642      0.629    0.635      0.595    0.886     0.641     G7
                 0.743    0.035    0.703      0.743    0.722      0.691    0.913     0.668     G8
                 0.886    0.003    0.969      0.886    0.925      0.919    0.970     0.891     G9
                 0.536    0.038    0.610      0.536    0.570      0.527    0.899     0.565     G0
Weighted Avg.    0.735    0.029    0.739      0.735    0.735      0.707    0.923     0.716     


=== Confusion Matrix ===

   a   b   c   d   e   f   g   h   i   j   <-- classified as
 119   4  14   0   0   0   2   0   0   1 |   a = G1
   3 114   8   1   7   1   5   0   1   0 |   b = G2
   8   9 104   5   3   0   9   2   0   0 |   c = G3
   0   6   6 103   3   4  10   6   0   2 |   d = G4
   0  15   6   2  97   8   2   1   0   9 |   e = G5
   0   4   0   4   4 101   2   7   0  18 |   f = G6
   1   2  13   7   4   2  88  15   2   6 |   g = G7
   0   0   1  10   3   2   9 104   0  11 |   h = G8
   0   0   1   4   0   2   3   5 124   1 |   i = G9
   0   2   2   2   7  36   7   8   1  75 |   j = G0

