

REPTree
============

fingersAreas < 15.7
|   Max_X < 0.01
|   |   silhouette15 < 153.81
|   |   |   silhouette29 < 217.25
|   |   |   |   cellOccupancyNonZ13 < 1745.5
|   |   |   |   |   silhouette11 < 212.17 : G2 (72/2) [45/8]
|   |   |   |   |   silhouette11 >= 212.17 : G1 (4/3) [1/0]
|   |   |   |   cellOccupancyNonZ13 >= 1745.5 : G2 (10/6) [3/3]
|   |   |   silhouette29 >= 217.25 : G4 (10/4) [3/1]
|   |   silhouette15 >= 153.81
|   |   |   cellOccupancyNonZ27 < 2446.5
|   |   |   |   silhouette16 < 166.3 : G2 (6/1) [6/3]
|   |   |   |   silhouette16 >= 166.3 : G3 (7/0) [7/1]
|   |   |   cellOccupancyNonZ27 >= 2446.5 : G1 (92/4) [45/3]
|   Max_X >= 0.01
|   |   ratio < 0.01 : G9 (85/2) [47/2]
|   |   ratio >= 0.01
|   |   |   cellOccupancyNonZ20 < 2631.5
|   |   |   |   silhouette13 < 96.78 : G2 (11/7) [5/4]
|   |   |   |   silhouette13 >= 96.78
|   |   |   |   |   cellOccupancyNonZ36 < 3414.5 : G5 (10/0) [6/2]
|   |   |   |   |   cellOccupancyNonZ36 >= 3414.5 : G6 (7/2) [4/1]
|   |   |   cellOccupancyNonZ20 >= 2631.5
|   |   |   |   silhouette16 < 118.14 : G6 (8/3) [4/3]
|   |   |   |   silhouette16 >= 118.14 : G3 (70/3) [32/3]
fingersAreas >= 15.7
|   ratio < 0.01
|   |   fingersAreas < 32.11
|   |   |   cellOccupancyNonZ5 < 4.5 : G0 (98/31) [50/17]
|   |   |   cellOccupancyNonZ5 >= 4.5
|   |   |   |   cellOccupancyNonZ12 < 3086.5 : G8 (74/6) [38/3]
|   |   |   |   cellOccupancyNonZ12 >= 3086.5
|   |   |   |   |   silhouette10 < 124.51 : G7 (4/1) [3/0]
|   |   |   |   |   silhouette10 >= 124.51 : G0 (12/2) [1/0]
|   |   fingersAreas >= 32.11
|   |   |   Max_X < 0.23 : G4 (65/7) [30/4]
|   |   |   Max_X >= 0.23
|   |   |   |   silhouette17 < 102.96 : G8 (8/4) [3/0]
|   |   |   |   silhouette17 >= 102.96 : G7 (70/2) [38/2]
|   ratio >= 0.01
|   |   fingersAreas < 20.03
|   |   |   Max_Y < 1.08
|   |   |   |   ratio < 0.02 : G6 (60/4) [27/2]
|   |   |   |   ratio >= 0.02
|   |   |   |   |   ratio < 0.02 : G2 (3/0) [0/0]
|   |   |   |   |   ratio >= 0.02 : G3 (4/2) [3/1]
|   |   |   Max_Y >= 1.08 : G4 (21/6) [12/1]
|   |   fingersAreas >= 20.03
|   |   |   silhouette17 < 132.05
|   |   |   |   silhouette13 < 81.74 : G4 (7/2) [5/3]
|   |   |   |   silhouette13 >= 81.74
|   |   |   |   |   Max_X < 0.46 : G5 (78/5) [33/6]
|   |   |   |   |   Max_X >= 0.46
|   |   |   |   |   |   cellOccupancyNonZ42 < 105.5 : G0 (6/1) [3/0]
|   |   |   |   |   |   cellOccupancyNonZ42 >= 105.5
|   |   |   |   |   |   |   silhouette1 < 77.71 : G5 (3/0) [2/0]
|   |   |   |   |   |   |   silhouette1 >= 77.71
|   |   |   |   |   |   |   |   ratio < 0.02 : G3 (2/0) [1/0]
|   |   |   |   |   |   |   |   ratio >= 0.02 : G6 (2/0) [1/0]
|   |   |   silhouette17 >= 132.05
|   |   |   |   cellOccupancyNonZ20 < 3396.5
|   |   |   |   |   Max_X < 0.83 : G4 (9/5) [4/2]
|   |   |   |   |   Max_X >= 0.83 : G7 (5/0) [2/2]
|   |   |   |   cellOccupancyNonZ20 >= 3396.5 : G3 (10/2) [3/1]

Size of the tree : 65

Time taken to build model: 0.31 seconds
Time taken to test model on training data: 0.06 seconds

=== Error on training data ===

Correctly Classified Instances        1205               86.0714 %
Incorrectly Classified Instances       195               13.9286 %
Kappa statistic                          0.8452
Mean absolute error                      0.0446
Root mean squared error                  0.1493
Relative absolute error                 24.7637 %
Root relative squared error             49.7632 %
Total Number of Instances             1400     


=== Detailed Accuracy By Class ===

                 TP Rate  FP Rate  Precision  Recall   F-Measure  MCC      ROC Area  PRC Area  Class
                 0.943    0.008    0.930      0.943    0.936      0.929    0.993     0.929     G1
                 0.907    0.027    0.789      0.907    0.844      0.828    0.983     0.872     G2
                 0.900    0.010    0.906      0.900    0.903      0.893    0.990     0.910     G3
                 0.936    0.028    0.789      0.936    0.856      0.843    0.988     0.852     G4
                 0.850    0.010    0.902      0.850    0.875      0.862    0.980     0.853     G5
                 0.700    0.012    0.867      0.700    0.775      0.758    0.965     0.783     G6
                 0.821    0.006    0.943      0.821    0.878      0.868    0.982     0.892     G7
                 0.786    0.010    0.894      0.786    0.837      0.822    0.974     0.835     G8
                 0.914    0.003    0.970      0.914    0.941      0.935    0.992     0.935     G9
                 0.850    0.040    0.700      0.850    0.768      0.744    0.961     0.682     G0
Weighted Avg.    0.861    0.015    0.869      0.861    0.861      0.848    0.981     0.854     


=== Confusion Matrix ===

   a   b   c   d   e   f   g   h   i   j   <-- classified as
 132   3   4   1   0   0   0   0   0   0 |   a = G1
   3 127   1   2   3   2   0   0   1   1 |   b = G2
   4   7 126   0   1   2   0   0   0   0 |   c = G3
   1   3   1 131   0   1   3   0   0   0 |   d = G4
   0   8   2   5 119   3   0   0   0   3 |   e = G5
   1   4   1   3   1  98   1   0   3  28 |   f = G6
   1   8   1   9   0   0 115   3   0   3 |   g = G7
   0   0   1  12   0   3   2 110   0  12 |   h = G8
   0   0   0   3   0   0   0   5 128   4 |   i = G9
   0   1   2   0   8   4   1   5   0 119 |   j = G0



=== Stratified cross-validation ===

Correctly Classified Instances        1083               77.3571 %
Incorrectly Classified Instances       317               22.6429 %
Kappa statistic                          0.7484
Mean absolute error                      0.0587
Root mean squared error                  0.1901
Relative absolute error                 32.6249 %
Root relative squared error             63.351  %
Total Number of Instances             1400     


=== Detailed Accuracy By Class ===

                 TP Rate  FP Rate  Precision  Recall   F-Measure  MCC      ROC Area  PRC Area  Class
                 0.929    0.010    0.909      0.929    0.919      0.910    0.978     0.901     G1
                 0.771    0.032    0.730      0.771    0.750      0.722    0.939     0.752     G2
                 0.729    0.029    0.739      0.729    0.734      0.704    0.937     0.780     G3
                 0.736    0.023    0.780      0.736    0.757      0.732    0.918     0.788     G4
                 0.771    0.030    0.740      0.771    0.755      0.728    0.905     0.717     G5
                 0.671    0.030    0.712      0.671    0.691      0.658    0.900     0.699     G6
                 0.779    0.032    0.732      0.779    0.754      0.727    0.941     0.743     G7
                 0.771    0.025    0.771      0.771    0.771      0.746    0.937     0.781     G8
                 0.893    0.006    0.947      0.893    0.919      0.911    0.970     0.889     G9
                 0.686    0.035    0.686      0.686    0.686      0.651    0.908     0.633     G0
Weighted Avg.    0.774    0.025    0.775      0.774    0.774      0.749    0.933     0.768     


=== Confusion Matrix ===

   a   b   c   d   e   f   g   h   i   j   <-- classified as
 130   3   7   0   0   0   0   0   0   0 |   a = G1
   5 108   8   4   9   2   2   0   1   1 |   b = G2
   6  12 102   2   5   3   6   2   0   2 |   c = G3
   0   6   1 103   4  10  10   4   0   2 |   d = G4
   0  12   4   4 108   3   2   2   0   5 |   e = G5
   0   5   2   6   7  94   2   2   4  18 |   f = G6
   1   1   8   5   1   1 109   9   0   5 |   g = G7
   0   0   1   3   0   5  14 108   1   8 |   h = G8
   0   0   2   3   1   0   0   6 125   3 |   i = G9
   1   1   3   2  11  14   4   7   1  96 |   j = G0

