

REPTree
============

fingersAreas < 15.7
|   Max_X < 0.01
|   |   silhouette15 < 153.81
|   |   |   silhouette29 < 217.25
|   |   |   |   contourDistances106 < 0.73 : G2 (79/5) [47/10]
|   |   |   |   contourDistances106 >= 0.73 : G3 (7/5) [2/1]
|   |   |   silhouette29 >= 217.25 : G4 (10/4) [3/1]
|   |   silhouette15 >= 153.81
|   |   |   cellOccupancyNonZ27 < 2446.5
|   |   |   |   silhouette16 < 166.3 : G2 (6/1) [6/3]
|   |   |   |   silhouette16 >= 166.3 : G3 (7/0) [7/1]
|   |   |   cellOccupancyNonZ27 >= 2446.5 : G1 (92/4) [45/3]
|   Max_X >= 0.01
|   |   ratio < 0.01 : G9 (85/2) [47/2]
|   |   ratio >= 0.01
|   |   |   cellOccupancyNonZ20 < 2631.5
|   |   |   |   silhouette13 < 96.78 : G2 (11/7) [5/4]
|   |   |   |   silhouette13 >= 96.78 : G5 (17/6) [10/5]
|   |   |   cellOccupancyNonZ20 >= 2631.5 : G3 (78/9) [36/7]
fingersAreas >= 15.7
|   ratio < 0.01
|   |   fingersAreas < 32.11
|   |   |   cellOccupancyAvg5 < 0.02
|   |   |   |   Max_Y < 1.12
|   |   |   |   |   cellOccupancyAvg27 < 10.21
|   |   |   |   |   |   silhouette9 < 81.72
|   |   |   |   |   |   |   fingersAreas < 28.12 : G0 (10/0) [4/1]
|   |   |   |   |   |   |   fingersAreas >= 28.12 : G7 (2/0) [1/0]
|   |   |   |   |   |   silhouette9 >= 81.72
|   |   |   |   |   |   |   Max_Y < 1 : G6 (17/1) [6/0]
|   |   |   |   |   |   |   Max_Y >= 1 : G0 (7/1) [8/2]
|   |   |   |   |   cellOccupancyAvg27 >= 10.21 : G0 (47/4) [24/3]
|   |   |   |   Max_Y >= 1.12
|   |   |   |   |   silhouette30 < 138.08
|   |   |   |   |   |   silhouette29 < 175.42 : G0 (8/0) [4/1]
|   |   |   |   |   |   silhouette29 >= 175.42 : G5 (2/1) [2/0]
|   |   |   |   |   silhouette30 >= 138.08
|   |   |   |   |   |   silhouette6 < 84 : G8 (8/0) [0/0]
|   |   |   |   |   |   silhouette6 >= 84 : G9 (3/1) [1/0]
|   |   |   cellOccupancyAvg5 >= 0.02
|   |   |   |   cellOccupancyNonZ55 < 452.5
|   |   |   |   |   silhouette14 < 102.44 : G8 (8/3) [5/1]
|   |   |   |   |   silhouette14 >= 102.44 : G0 (12/2) [2/1]
|   |   |   |   cellOccupancyNonZ55 >= 452.5 : G8 (64/1) [35/4]
|   |   fingersAreas >= 32.11
|   |   |   Max_X < 0.23 : G4 (65/7) [30/4]
|   |   |   Max_X >= 0.23
|   |   |   |   contourDistances22 < 0.8 : G7 (72/2) [36/1]
|   |   |   |   contourDistances22 >= 0.8 : G8 (6/2) [5/2]
|   ratio >= 0.01
|   |   fingersAreas < 20.03
|   |   |   Max_Y < 1.08
|   |   |   |   ratio < 0.02 : G6 (60/4) [27/2]
|   |   |   |   ratio >= 0.02
|   |   |   |   |   ratio < 0.02 : G2 (3/0) [0/0]
|   |   |   |   |   ratio >= 0.02 : G3 (4/2) [3/1]
|   |   |   Max_Y >= 1.08 : G4 (21/6) [12/1]
|   |   fingersAreas >= 20.03
|   |   |   silhouette17 < 132.05
|   |   |   |   silhouette13 < 81.74 : G4 (7/2) [5/3]
|   |   |   |   silhouette13 >= 81.74
|   |   |   |   |   Max_X < 0.46 : G5 (78/5) [33/6]
|   |   |   |   |   Max_X >= 0.46
|   |   |   |   |   |   cellOccupancyNonZ42 < 105.5 : G0 (6/1) [3/0]
|   |   |   |   |   |   cellOccupancyNonZ42 >= 105.5
|   |   |   |   |   |   |   silhouette1 < 77.71 : G5 (3/0) [2/0]
|   |   |   |   |   |   |   silhouette1 >= 77.71
|   |   |   |   |   |   |   |   ratio < 0.02 : G3 (2/0) [1/0]
|   |   |   |   |   |   |   |   ratio >= 0.02 : G6 (2/0) [1/0]
|   |   |   silhouette17 >= 132.05 : G3 (24/16) [9/7]

Size of the tree : 71

Time taken to build model: 0.56 seconds
Time taken to test model on training data: 0.17 seconds

=== Error on training data ===

Correctly Classified Instances        1219               87.0714 %
Incorrectly Classified Instances       181               12.9286 %
Kappa statistic                          0.8563
Mean absolute error                      0.0412
Root mean squared error                  0.1436
Relative absolute error                 22.9065 %
Root relative squared error             47.8608 %
Total Number of Instances             1400     


=== Detailed Accuracy By Class ===

                 TP Rate  FP Rate  Precision  Recall   F-Measure  MCC      ROC Area  PRC Area  Class
                 0.929    0.006    0.949      0.929    0.939      0.932    0.991     0.922     G1
                 0.907    0.024    0.809      0.907    0.855      0.840    0.980     0.842     G2
                 0.936    0.039    0.728      0.936    0.819      0.804    0.983     0.839     G3
                 0.893    0.022    0.817      0.893    0.853      0.837    0.986     0.846     G4
                 0.886    0.018    0.844      0.886    0.864      0.849    0.984     0.856     G5
                 0.757    0.006    0.938      0.757    0.838      0.828    0.965     0.841     G6
                 0.771    0.002    0.973      0.771    0.861      0.854    0.981     0.887     G7
                 0.843    0.010    0.901      0.843    0.871      0.858    0.984     0.892     G8
                 0.936    0.004    0.963      0.936    0.949      0.944    0.997     0.962     G9
                 0.850    0.013    0.881      0.850    0.865      0.851    0.975     0.842     G0
Weighted Avg.    0.871    0.014    0.880      0.871    0.871      0.860    0.983     0.873     


=== Confusion Matrix ===

   a   b   c   d   e   f   g   h   i   j   <-- classified as
 130   4   5   1   0   0   0   0   0   0 |   a = G1
   2 127   4   2   3   0   0   0   1   1 |   b = G2
   4   4 131   0   1   0   0   0   0   0 |   c = G3
   0   4   8 125   0   1   1   1   0   0 |   d = G4
   0   7   5   4 124   0   0   0   0   0 |   e = G5
   0   5   7   3   9 106   0   0   3   7 |   f = G6
   1   6   8   9   0   0 108   4   1   3 |   g = G7
   0   0   8   6   0   3   1 118   0   4 |   h = G8
   0   0   0   3   1   0   0   4 131   1 |   i = G9
   0   0   4   0   9   3   1   4   0 119 |   j = G0



=== Stratified cross-validation ===

Correctly Classified Instances        1069               76.3571 %
Incorrectly Classified Instances       331               23.6429 %
Kappa statistic                          0.7373
Mean absolute error                      0.0614
Root mean squared error                  0.1955
Relative absolute error                 34.1242 %
Root relative squared error             65.1707 %
Total Number of Instances             1400     


=== Detailed Accuracy By Class ===

                 TP Rate  FP Rate  Precision  Recall   F-Measure  MCC      ROC Area  PRC Area  Class
                 0.921    0.006    0.942      0.921    0.931      0.924    0.978     0.902     G1
                 0.750    0.034    0.709      0.750    0.729      0.698    0.930     0.723     G2
                 0.750    0.036    0.700      0.750    0.724      0.693    0.911     0.723     G3
                 0.700    0.020    0.797      0.700    0.745      0.721    0.914     0.767     G4
                 0.779    0.032    0.732      0.779    0.754      0.727    0.928     0.717     G5
                 0.686    0.033    0.696      0.686    0.691      0.657    0.889     0.652     G6
                 0.800    0.034    0.723      0.800    0.759      0.732    0.946     0.728     G7
                 0.743    0.029    0.743      0.743    0.743      0.714    0.941     0.753     G8
                 0.879    0.006    0.939      0.879    0.908      0.898    0.959     0.891     G9
                 0.629    0.033    0.682      0.629    0.654      0.618    0.886     0.590     G0
Weighted Avg.    0.764    0.026    0.766      0.764    0.764      0.738    0.928     0.745     


=== Confusion Matrix ===

   a   b   c   d   e   f   g   h   i   j   <-- classified as
 129   1   6   1   1   0   2   0   0   0 |   a = G1
   2 105  17   2   8   2   0   1   1   2 |   b = G2
   5  11 105   2   1   4   4   4   1   3 |   c = G3
   0   7   3  98   6  10  13   2   0   1 |   d = G4
   0  12   5   3 109   4   1   1   0   5 |   e = G5
   0   5   2   6   9  96   0   2   3  17 |   f = G6
   1   1   7   5   1   1 112  11   0   1 |   g = G7
   0   1   0   3   1   5  15 104   2   9 |   h = G8
   0   2   3   1   1   0   1   6 123   3 |   i = G9
   0   3   2   2  12  16   7   9   1  88 |   j = G0

