

REPTree
============

newFingerTipDistRefined_f1 < 0.42
|   newFingerTipDistRefined_f3 < 0.25
|   |   newFingerTipDistRefined_f5 < 0.26
|   |   |   cellOccupancyNonZ12 < 1713
|   |   |   |   cellOccupancyNonZ31 < 1203 : G1 (8/5) [5/4]
|   |   |   |   cellOccupancyNonZ31 >= 1203
|   |   |   |   |   contourDistances140 < 0.63
|   |   |   |   |   |   contourDistances37 < 0.57
|   |   |   |   |   |   |   contourDistances37 < 0.55 : G2 (4/0) [1/0]
|   |   |   |   |   |   |   contourDistances37 >= 0.55 : G3 (2/1) [2/1]
|   |   |   |   |   |   contourDistances37 >= 0.57 : G2 (72/0) [40/3]
|   |   |   |   |   contourDistances140 >= 0.63
|   |   |   |   |   |   cellOccupancyNonZ18 < 17.5 : G2 (10/0) [5/1]
|   |   |   |   |   |   cellOccupancyNonZ18 >= 17.5 : G5 (10/2) [6/2]
|   |   |   cellOccupancyNonZ12 >= 1713
|   |   |   |   cellOccupancyNonZ26 < 85.5
|   |   |   |   |   contourDistances1 < 0.42 : G2 (4/0) [2/0]
|   |   |   |   |   contourDistances1 >= 0.42 : G3 (5/2) [3/0]
|   |   |   |   cellOccupancyNonZ26 >= 85.5
|   |   |   |   |   newFingerTipDistRefined_f2 < 0.5 : G1 (91/1) [47/4]
|   |   |   |   |   newFingerTipDistRefined_f2 >= 0.5 : G2 (2/1) [1/0]
|   |   newFingerTipDistRefined_f5 >= 0.26 : G3 (87/0) [39/0]
|   newFingerTipDistRefined_f3 >= 0.25
|   |   newFingerTipDistRefined_f4 < 0.48
|   |   |   newFingerTipDistRefined_f5 < 0.3
|   |   |   |   contourDistances109 < 0.42
|   |   |   |   |   Max_X < 0.5 : G5 (72/0) [32/0]
|   |   |   |   |   Max_X >= 0.5
|   |   |   |   |   |   Max_Y < 1.05 : G0 (3/0) [1/0]
|   |   |   |   |   |   Max_Y >= 1.05 : G5 (3/0) [1/0]
|   |   |   |   contourDistances109 >= 0.42 : G5 (20/11) [12/7]
|   |   |   newFingerTipDistRefined_f5 >= 0.3 : G0 (82/0) [39/0]
|   |   newFingerTipDistRefined_f4 >= 0.48 : G6 (87/0) [44/0]
newFingerTipDistRefined_f1 >= 0.42
|   newFingerTipDistRefined_f3 < 0.56
|   |   newFingerTipDistRefined_f2 < 0.45
|   |   |   ratio < 0.53 : G7 (89/0) [44/0]
|   |   |   ratio >= 0.53
|   |   |   |   cellOccupancyNonZ59 < 129.5 : G4 (7/0) [2/0]
|   |   |   |   cellOccupancyNonZ59 >= 129.5 : G7 (6/3) [2/0]
|   |   newFingerTipDistRefined_f2 >= 0.45
|   |   |   newFingerTipDistRefined_f5 < 0.35
|   |   |   |   cellOccupancyNonZ51 < 650 : G4 (86/2) [48/3]
|   |   |   |   cellOccupancyNonZ51 >= 650 : G8 (9/2) [1/0]
|   |   |   newFingerTipDistRefined_f5 >= 0.35 : G8 (84/0) [43/0]
|   newFingerTipDistRefined_f3 >= 0.56 : G9 (90/0) [47/0]

Size of the tree : 47

Time taken to build model: 0.46 seconds
Time taken to test model on training data: 0.15 seconds

=== Error on training data ===

Correctly Classified Instances        1345               96.0714 %
Incorrectly Classified Instances        55                3.9286 %
Kappa statistic                          0.9563
Mean absolute error                      0.011 
Root mean squared error                  0.0741
Relative absolute error                  6.0955 %
Root relative squared error             24.689  %
Total Number of Instances             1400     


=== Detailed Accuracy By Class ===

                 TP Rate  FP Rate  Precision  Recall   F-Measure  MCC      ROC Area  PRC Area  Class
                 0.979    0.011    0.907      0.979    0.942      0.936    0.998     0.959     G1
                 0.971    0.004    0.965      0.971    0.968      0.964    0.999     0.975     G2
                 0.957    0.003    0.971      0.957    0.964      0.960    0.998     0.981     G3
                 0.986    0.004    0.965      0.986    0.975      0.973    0.998     0.967     G4
                 0.957    0.017    0.859      0.957    0.905      0.896    0.996     0.970     G5
                 0.936    0.000    1.000      0.936    0.967      0.964    0.998     0.985     G6
                 0.986    0.002    0.979      0.986    0.982      0.980    1.000     0.998     G7
                 0.964    0.002    0.985      0.964    0.975      0.972    0.998     0.982     G8
                 0.979    0.000    1.000      0.979    0.989      0.988    1.000     0.999     G9
                 0.893    0.000    1.000      0.893    0.943      0.939    0.999     0.984     G0
Weighted Avg.    0.961    0.004    0.963      0.961    0.961      0.957    0.998     0.980     


=== Confusion Matrix ===

   a   b   c   d   e   f   g   h   i   j   <-- classified as
 137   0   0   0   3   0   0   0   0   0 |   a = G1
   4 136   0   0   0   0   0   0   0   0 |   b = G2
   5   1 134   0   0   0   0   0   0   0 |   c = G3
   0   0   0 138   0   0   0   2   0   0 |   d = G4
   2   1   3   0 134   0   0   0   0   0 |   e = G5
   2   1   0   0   6 131   0   0   0   0 |   f = G6
   1   0   1   0   0   0 138   0   0   0 |   g = G7
   0   0   0   5   0   0   0 135   0   0 |   h = G8
   0   0   0   0   0   0   3   0 137   0 |   i = G9
   0   2   0   0  13   0   0   0   0 125 |   j = G0



=== Stratified cross-validation ===

Correctly Classified Instances        1301               92.9286 %
Incorrectly Classified Instances        99                7.0714 %
Kappa statistic                          0.9214
Mean absolute error                      0.0191
Root mean squared error                  0.1077
Relative absolute error                 10.6257 %
Root relative squared error             35.9014 %
Total Number of Instances             1400     


=== Detailed Accuracy By Class ===

                 TP Rate  FP Rate  Precision  Recall   F-Measure  MCC      ROC Area  PRC Area  Class
                 0.921    0.013    0.890      0.921    0.905      0.895    0.984     0.933     G1
                 0.886    0.021    0.827      0.886    0.855      0.839    0.987     0.878     G2
                 0.929    0.010    0.915      0.929    0.922      0.913    0.981     0.953     G3
                 0.964    0.010    0.918      0.964    0.941      0.934    0.986     0.921     G4
                 0.900    0.017    0.851      0.900    0.875      0.861    0.986     0.879     G5
                 0.936    0.001    0.992      0.936    0.963      0.960    0.981     0.963     G6
                 0.957    0.003    0.971      0.957    0.964      0.960    0.998     0.983     G7
                 0.950    0.002    0.978      0.950    0.964      0.960    0.997     0.973     G8
                 0.979    0.000    1.000      0.979    0.989      0.988    0.996     0.992     G9
                 0.871    0.002    0.976      0.871    0.921      0.914    0.990     0.954     G0
Weighted Avg.    0.929    0.008    0.932      0.929    0.930      0.922    0.989     0.943     


=== Confusion Matrix ===

   a   b   c   d   e   f   g   h   i   j   <-- classified as
 129   4   4   0   2   1   0   0   0   0 |   a = G1
  10 124   6   0   0   0   0   0   0   0 |   b = G2
   3   7 130   0   0   0   0   0   0   0 |   c = G3
   0   0   0 135   0   0   2   3   0   0 |   d = G4
   0  11   1   0 126   0   0   0   0   2 |   e = G5
   1   2   1   0   4 131   0   0   0   1 |   f = G6
   1   1   0   4   0   0 134   0   0   0 |   g = G7
   0   0   0   7   0   0   0 133   0   0 |   h = G8
   0   0   0   1   0   0   2   0 137   0 |   i = G9
   1   1   0   0  16   0   0   0   0 122 |   j = G0

