

REPTree
============

fingersAreas < 15.7
|   cellOccupancyAvg12 < 7.05
|   |   fingersAreas < 2.72
|   |   |   cellOccupancyAvg43 < 3.92
|   |   |   |   cellOccupancyAvg31 < 6.82 : G1 (7/4) [2/2]
|   |   |   |   cellOccupancyAvg31 >= 6.82
|   |   |   |   |   cellOccupancyAvg62 < 0.45
|   |   |   |   |   |   cellOccupancyAvg33 < 1.28 : G2 (61/1) [39/4]
|   |   |   |   |   |   cellOccupancyAvg33 >= 1.28
|   |   |   |   |   |   |   cellOccupancyAvg18 < 3.3 : G2 (14/0) [6/0]
|   |   |   |   |   |   |   cellOccupancyAvg18 >= 3.3 : G5 (5/0) [3/0]
|   |   |   |   |   cellOccupancyAvg62 >= 0.45 : G4 (5/0) [2/0]
|   |   |   cellOccupancyAvg43 >= 3.92
|   |   |   |   cellOccupancyAvg12 < 0.55 : G5 (12/8) [3/0]
|   |   |   |   cellOccupancyAvg12 >= 0.55 : G3 (20/3) [9/2]
|   |   fingersAreas >= 2.72
|   |   |   ratio < 0.01 : G9 (84/2) [45/1]
|   |   |   ratio >= 0.01 : G6 (19/10) [13/8]
|   cellOccupancyAvg12 >= 7.05
|   |   cellOccupancyAvg26 < 0.58
|   |   |   cellOccupancyAvg20 < 13.34 : G7 (8/4) [4/1]
|   |   |   cellOccupancyAvg20 >= 13.34
|   |   |   |   cellOccupancyAvg46 < 12.26 : G2 (5/2) [3/1]
|   |   |   |   cellOccupancyAvg46 >= 12.26 : G3 (43/0) [27/1]
|   |   cellOccupancyAvg26 >= 0.58
|   |   |   cellOccupancyAvg52 < 8.16
|   |   |   |   ratio < 0.54 : G1 (19/2) [6/2]
|   |   |   |   ratio >= 0.54 : G3 (19/5) [5/1]
|   |   |   cellOccupancyAvg52 >= 8.16 : G1 (71/2) [41/1]
fingersAreas >= 15.7
|   ratio < 0.01
|   |   fingersAreas < 32.11
|   |   |   cellOccupancyAvg5 < 0.02
|   |   |   |   cellOccupancyAvg54 < 6.67
|   |   |   |   |   cellOccupancyAvg45 < 13.62
|   |   |   |   |   |   ratio < 0.01 : G0 (14/1) [11/0]
|   |   |   |   |   |   ratio >= 0.01
|   |   |   |   |   |   |   cellOccupancyAvg51 < 1
|   |   |   |   |   |   |   |   cellOccupancyAvg27 < 10.21
|   |   |   |   |   |   |   |   |   cellOccupancyAvg9 < 1.54 : G6 (7/0) [6/2]
|   |   |   |   |   |   |   |   |   cellOccupancyAvg9 >= 1.54 : G0 (4/1) [1/0]
|   |   |   |   |   |   |   |   cellOccupancyAvg27 >= 10.21 : G0 (7/0) [3/2]
|   |   |   |   |   |   |   cellOccupancyAvg51 >= 1 : G6 (9/0) [3/1]
|   |   |   |   |   cellOccupancyAvg45 >= 13.62 : G0 (25/0) [12/2]
|   |   |   |   cellOccupancyAvg54 >= 6.67 : G0 (38/18) [14/5]
|   |   |   cellOccupancyAvg5 >= 0.02
|   |   |   |   cellOccupancyAvg55 < 1.96
|   |   |   |   |   cellOccupancyAvg12 < 3.55 : G8 (8/3) [5/1]
|   |   |   |   |   cellOccupancyAvg12 >= 3.55 : G0 (12/2) [2/1]
|   |   |   |   cellOccupancyAvg55 >= 1.96 : G8 (64/1) [35/4]
|   |   fingersAreas >= 32.11
|   |   |   cellOccupancyAvg21 < 4.18
|   |   |   |   cellOccupancyAvg51 < 1.99 : G4 (53/2) [25/2]
|   |   |   |   cellOccupancyAvg51 >= 1.99
|   |   |   |   |   cellOccupancyAvg4 < 0.54 : G8 (5/0) [2/0]
|   |   |   |   |   cellOccupancyAvg4 >= 0.54 : G7 (2/0) [1/0]
|   |   |   cellOccupancyAvg21 >= 4.18 : G7 (83/11) [43/7]
|   ratio >= 0.01
|   |   fingersAreas < 20.03
|   |   |   cellOccupancyAvg62 < 0.54
|   |   |   |   ratio < 0.02
|   |   |   |   |   cellOccupancyAvg34 < 0.34
|   |   |   |   |   |   cellOccupancyAvg30 < 15.41 : G6 (4/0) [0/0]
|   |   |   |   |   |   cellOccupancyAvg30 >= 15.41 : G4 (4/2) [1/0]
|   |   |   |   |   cellOccupancyAvg34 >= 0.34 : G6 (52/0) [24/0]
|   |   |   |   ratio >= 0.02 : G2 (7/4) [2/2]
|   |   |   cellOccupancyAvg62 >= 0.54
|   |   |   |   cellOccupancyAvg51 < 0.43 : G4 (16/3) [12/1]
|   |   |   |   cellOccupancyAvg51 >= 0.43 : G8 (5/0) [3/2]
|   |   fingersAreas >= 20.03
|   |   |   cellOccupancyAvg13 < 1.65 : G5 (90/17) [40/9]
|   |   |   cellOccupancyAvg13 >= 1.65
|   |   |   |   cellOccupancyAvg60 < 3.61
|   |   |   |   |   cellOccupancyAvg20 < 12.06
|   |   |   |   |   |   cellOccupancyAvg15 < 1.56 : G8 (6/1) [5/3]
|   |   |   |   |   |   cellOccupancyAvg15 >= 1.56 : G4 (4/1) [1/0]
|   |   |   |   |   cellOccupancyAvg20 >= 12.06 : G3 (14/6) [4/2]
|   |   |   |   cellOccupancyAvg60 >= 3.61 : G7 (8/2) [4/4]

Size of the tree : 79

Time taken to build model: 0.28 seconds
Time taken to test model on training data: 0.06 seconds

=== Error on training data ===

Correctly Classified Instances        1208               86.2857 %
Incorrectly Classified Instances       192               13.7143 %
Kappa statistic                          0.8476
Mean absolute error                      0.043 
Root mean squared error                  0.1466
Relative absolute error                 23.8955 %
Root relative squared error             48.883  %
Total Number of Instances             1400     


=== Detailed Accuracy By Class ===

                 TP Rate  FP Rate  Precision  Recall   F-Measure  MCC      ROC Area  PRC Area  Class
                 0.950    0.010    0.911      0.950    0.930      0.922    0.997     0.956     G1
                 0.879    0.011    0.898      0.879    0.888      0.876    0.988     0.914     G2
                 0.864    0.016    0.858      0.864    0.861      0.846    0.986     0.904     G3
                 0.800    0.009    0.911      0.800    0.852      0.839    0.978     0.859     G4
                 0.850    0.027    0.778      0.850    0.812      0.791    0.983     0.796     G5
                 0.829    0.017    0.847      0.829    0.838      0.820    0.971     0.890     G6
                 0.886    0.023    0.810      0.886    0.846      0.830    0.982     0.823     G7
                 0.879    0.012    0.891      0.879    0.885      0.872    0.990     0.907     G8
                 0.900    0.002    0.977      0.900    0.937      0.931    0.995     0.952     G9
                 0.793    0.025    0.776      0.793    0.784      0.760    0.965     0.805     G0
Weighted Avg.    0.863    0.015    0.866      0.863    0.863      0.849    0.983     0.881     


=== Confusion Matrix ===

   a   b   c   d   e   f   g   h   i   j   <-- classified as
 133   0   4   0   1   0   2   0   0   0 |   a = G1
   1 123   4   0   7   2   2   0   1   0 |   b = G2
   4   5 121   2   3   2   2   1   0   0 |   c = G3
   0   1   3 112   5   3  12   4   0   0 |   d = G4
   0   3   5   0 119   9   2   0   0   2 |   e = G5
   4   2   0   2   5 116   1   1   2   7 |   f = G6
   2   1   0   3   0   0 124   3   0   7 |   g = G7
   0   0   1   1   0   1   3 123   0  11 |   h = G8
   2   0   0   0   3   0   0   4 126   5 |   i = G9
   0   2   3   3  10   4   5   2   0 111 |   j = G0



=== Stratified cross-validation ===

Correctly Classified Instances        1089               77.7857 %
Incorrectly Classified Instances       311               22.2143 %
Kappa statistic                          0.7532
Mean absolute error                      0.0564
Root mean squared error                  0.1892
Relative absolute error                 31.3467 %
Root relative squared error             63.067  %
Total Number of Instances             1400     


=== Detailed Accuracy By Class ===

                 TP Rate  FP Rate  Precision  Recall   F-Measure  MCC      ROC Area  PRC Area  Class
                 0.900    0.016    0.863      0.900    0.881      0.868    0.962     0.861     G1
                 0.850    0.017    0.844      0.850    0.847      0.830    0.956     0.853     G2
                 0.721    0.033    0.706      0.721    0.714      0.682    0.924     0.699     G3
                 0.736    0.020    0.805      0.736    0.769      0.745    0.914     0.775     G4
                 0.807    0.033    0.729      0.807    0.766      0.740    0.949     0.755     G5
                 0.707    0.035    0.692      0.707    0.700      0.666    0.893     0.689     G6
                 0.771    0.026    0.766      0.771    0.769      0.743    0.939     0.751     G7
                 0.729    0.021    0.797      0.729    0.761      0.737    0.941     0.716     G8
                 0.914    0.007    0.934      0.914    0.924      0.916    0.974     0.877     G9
                 0.643    0.038    0.652      0.643    0.647      0.609    0.884     0.554     G0
Weighted Avg.    0.778    0.025    0.779      0.778    0.778      0.753    0.934     0.753     


=== Confusion Matrix ===

   a   b   c   d   e   f   g   h   i   j   <-- classified as
 126   2   9   0   0   1   0   0   1   1 |   a = G1
   3 119   4   0   5   5   2   0   2   0 |   b = G2
  14   5 101   4   6   4   4   1   0   1 |   c = G3
   0   4   5 103   4   7  12   3   1   1 |   d = G4
   0   2   8   1 113   6   1   1   1   7 |   e = G5
   1   5   4   4   4  99   1   0   3  19 |   f = G6
   1   1   6   7   4   1 108  11   0   1 |   g = G7
   0   0   1   9   5   3   6 102   1  13 |   h = G8
   0   0   2   0   1   0   0   4 128   5 |   i = G9
   1   3   3   0  13  17   7   6   0  90 |   j = G0

