

REPTree
============

fingersAreas < 15.7
|   cellOccupancyAvg12 < 7.05
|   |   fingersAreas < 2.72
|   |   |   cellOccupancyNonZ43 < 914.5 : G2 (92/18) [50/8]
|   |   |   cellOccupancyNonZ43 >= 914.5
|   |   |   |   cellOccupancyNonZ20 < 2519.5
|   |   |   |   |   contourDistances1 < 0.84
|   |   |   |   |   |   cellOccupancyNonZ35 < 2610 : G5 (3/0) [3/0]
|   |   |   |   |   |   cellOccupancyNonZ35 >= 2610 : G2 (4/1) [1/1]
|   |   |   |   |   contourDistances1 >= 0.84 : G9 (4/1) [0/0]
|   |   |   |   cellOccupancyNonZ20 >= 2519.5
|   |   |   |   |   contourDistances11 < 0.76 : G3 (18/0) [9/1]
|   |   |   |   |   contourDistances11 >= 0.76 : G1 (3/2) [1/0]
|   |   fingersAreas >= 2.72
|   |   |   ratio < 0.01 : G9 (84/2) [45/1]
|   |   |   ratio >= 0.01 : G6 (19/10) [13/8]
|   cellOccupancyAvg12 >= 7.05
|   |   cellOccupancyNonZ27 < 3128.5
|   |   |   cellOccupancyNonZ9 < 353.5
|   |   |   |   cellOccupancyNonZ20 < 2659.5 : G7 (6/2) [5/2]
|   |   |   |   cellOccupancyNonZ20 >= 2659.5 : G3 (51/2) [30/1]
|   |   |   cellOccupancyNonZ9 >= 353.5 : G2 (6/1) [3/1]
|   |   cellOccupancyNonZ27 >= 3128.5
|   |   |   contourDistances25 < 0.58
|   |   |   |   ratio < 0.5 : G1 (7/1) [3/1]
|   |   |   |   ratio >= 0.5 : G3 (10/3) [1/0]
|   |   |   contourDistances25 >= 0.58
|   |   |   |   contourDistances129 < 0.85 : G1 (83/0) [43/2]
|   |   |   |   contourDistances129 >= 0.85 : G3 (2/0) [1/0]
fingersAreas >= 15.7
|   ratio < 0.01
|   |   fingersAreas < 32.11
|   |   |   cellOccupancyAvg5 < 0.02
|   |   |   |   cellOccupancyNonZ40 < 549.5
|   |   |   |   |   ratio < 0.01
|   |   |   |   |   |   cellOccupancyNonZ12 < 2804 : G8 (6/0) [5/4]
|   |   |   |   |   |   cellOccupancyNonZ12 >= 2804 : G7 (5/2) [1/0]
|   |   |   |   |   ratio >= 0.01 : G0 (5/1) [0/0]
|   |   |   |   cellOccupancyNonZ40 >= 549.5
|   |   |   |   |   cellOccupancyNonZ50 < 135.5
|   |   |   |   |   |   ratio < 0.01 : G0 (43/0) [20/1]
|   |   |   |   |   |   ratio >= 0.01
|   |   |   |   |   |   |   cellOccupancyNonZ45 < 2303 : G6 (18/7) [7/3]
|   |   |   |   |   |   |   cellOccupancyNonZ45 >= 2303 : G0 (12/0) [8/3]
|   |   |   |   |   cellOccupancyNonZ50 >= 135.5
|   |   |   |   |   |   cellOccupancyNonZ45 < 3390.5 : G6 (8/1) [6/2]
|   |   |   |   |   |   cellOccupancyNonZ45 >= 3390.5
|   |   |   |   |   |   |   contourDistances9 < 0.63 : G8 (3/0) [0/0]
|   |   |   |   |   |   |   contourDistances9 >= 0.63
|   |   |   |   |   |   |   |   ratio < 0.01 : G9 (2/0) [1/0]
|   |   |   |   |   |   |   |   ratio >= 0.01 : G0 (2/0) [2/0]
|   |   |   cellOccupancyAvg5 >= 0.02
|   |   |   |   cellOccupancyNonZ55 < 452.5
|   |   |   |   |   contourDistances32 < 0.68 : G8 (8/3) [6/2]
|   |   |   |   |   contourDistances32 >= 0.68
|   |   |   |   |   |   contourDistances1 < 0.47 : G7 (2/0) [1/0]
|   |   |   |   |   |   contourDistances1 >= 0.47 : G0 (10/0) [0/0]
|   |   |   |   cellOccupancyNonZ55 >= 452.5 : G8 (64/1) [35/4]
|   |   fingersAreas >= 32.11
|   |   |   cellOccupancyAvg21 < 4.18
|   |   |   |   cellOccupancyNonZ51 < 513.5 : G4 (53/2) [25/2]
|   |   |   |   cellOccupancyNonZ51 >= 513.5 : G8 (7/2) [3/1]
|   |   |   cellOccupancyAvg21 >= 4.18 : G7 (83/11) [43/7]
|   ratio >= 0.01
|   |   fingersAreas < 20.03
|   |   |   cellOccupancyNonZ62 < 163.5
|   |   |   |   ratio < 0.02
|   |   |   |   |   cellOccupancyNonZ34 < 121
|   |   |   |   |   |   contourDistances58 < 0.75 : G4 (4/2) [1/0]
|   |   |   |   |   |   contourDistances58 >= 0.75 : G6 (4/0) [0/0]
|   |   |   |   |   cellOccupancyNonZ34 >= 121 : G6 (52/0) [24/0]
|   |   |   |   ratio >= 0.02 : G2 (7/4) [2/2]
|   |   |   cellOccupancyNonZ62 >= 163.5
|   |   |   |   cellOccupancyNonZ51 < 120.5 : G4 (16/3) [12/1]
|   |   |   |   cellOccupancyNonZ51 >= 120.5 : G8 (5/0) [3/2]
|   |   fingersAreas >= 20.03
|   |   |   cellOccupancyNonZ13 < 448.5 : G5 (90/17) [40/9]
|   |   |   cellOccupancyNonZ13 >= 448.5
|   |   |   |   contourDistances77 < 0.43 : G7 (10/4) [6/6]
|   |   |   |   contourDistances77 >= 0.43
|   |   |   |   |   cellOccupancyNonZ20 < 3224.5 : G4 (11/6) [3/1]
|   |   |   |   |   cellOccupancyNonZ20 >= 3224.5 : G3 (11/2) [5/3]

Size of the tree : 83

Time taken to build model: 0.57 seconds
Time taken to test model on training data: 0.14 seconds

=== Error on training data ===

Correctly Classified Instances        1210               86.4286 %
Incorrectly Classified Instances       190               13.5714 %
Kappa statistic                          0.8492
Mean absolute error                      0.0428
Root mean squared error                  0.1462
Relative absolute error                 23.7613 %
Root relative squared error             48.7455 %
Total Number of Instances             1400     


=== Detailed Accuracy By Class ===

                 TP Rate  FP Rate  Precision  Recall   F-Measure  MCC      ROC Area  PRC Area  Class
                 0.957    0.005    0.957      0.957    0.957      0.952    0.996     0.965     G1
                 0.921    0.029    0.782      0.921    0.846      0.831    0.980     0.790     G2
                 0.900    0.010    0.913      0.900    0.906      0.896    0.987     0.916     G3
                 0.771    0.013    0.864      0.771    0.815      0.797    0.966     0.820     G4
                 0.786    0.021    0.809      0.786    0.797      0.775    0.973     0.760     G5
                 0.857    0.025    0.795      0.857    0.825      0.805    0.977     0.891     G6
                 0.914    0.027    0.790      0.914    0.848      0.832    0.983     0.830     G7
                 0.900    0.015    0.869      0.900    0.884      0.871    0.991     0.913     G8
                 0.943    0.003    0.971      0.943    0.957      0.952    0.998     0.972     G9
                 0.693    0.004    0.951      0.693    0.802      0.795    0.967     0.852     G0
Weighted Avg.    0.864    0.015    0.870      0.864    0.864      0.851    0.982     0.871     


=== Confusion Matrix ===

   a   b   c   d   e   f   g   h   i   j   <-- classified as
 134   4   2   0   0   0   0   0   0   0 |   a = G1
   2 129   1   0   5   2   0   0   1   0 |   b = G2
   2   4 126   2   2   2   1   1   0   0 |   c = G3
   0   9   1 108   5   3  14   0   0   0 |   d = G4
   1  11   3   1 110  10   3   1   0   0 |   e = G5
   0   4   0   2   4 120   3   1   3   3 |   f = G6
   0   1   2   3   0   0 128   6   0   0 |   g = G7
   0   0   0   7   0   0   5 126   0   2 |   h = G8
   1   1   0   0   0   0   2   4 132   0 |   i = G9
   0   2   3   2  10  14   6   6   0  97 |   j = G0



=== Stratified cross-validation ===

Correctly Classified Instances        1071               76.5    %
Incorrectly Classified Instances       329               23.5    %
Kappa statistic                          0.7389
Mean absolute error                      0.062 
Root mean squared error                  0.195 
Relative absolute error                 34.4363 %
Root relative squared error             64.9936 %
Total Number of Instances             1400     


=== Detailed Accuracy By Class ===

                 TP Rate  FP Rate  Precision  Recall   F-Measure  MCC      ROC Area  PRC Area  Class
                 0.886    0.009    0.919      0.886    0.902      0.891    0.970     0.850     G1
                 0.807    0.025    0.785      0.807    0.796      0.773    0.948     0.817     G2
                 0.757    0.044    0.654      0.757    0.702      0.668    0.907     0.676     G3
                 0.671    0.028    0.729      0.671    0.699      0.668    0.926     0.702     G4
                 0.757    0.032    0.726      0.757    0.741      0.712    0.935     0.746     G5
                 0.736    0.040    0.673      0.736    0.703      0.669    0.890     0.689     G6
                 0.771    0.028    0.755      0.771    0.763      0.737    0.939     0.735     G7
                 0.736    0.021    0.798      0.736    0.766      0.742    0.927     0.709     G8
                 0.893    0.007    0.933      0.893    0.912      0.903    0.975     0.876     G9
                 0.636    0.029    0.712      0.636    0.672      0.639    0.889     0.669     G0
Weighted Avg.    0.765    0.026    0.768      0.765    0.766      0.740    0.931     0.747     


=== Confusion Matrix ===

   a   b   c   d   e   f   g   h   i   j   <-- classified as
 124   3  10   0   0   1   1   0   1   0 |   a = G1
   1 113  12   1   7   4   1   0   1   0 |   b = G2
   8   6 106   5   4   4   5   1   0   1 |   c = G3
   0   4   9  94   4   8  21   0   0   0 |   d = G4
   0   7   9   5 106   9   0   0   1   3 |   e = G5
   1   5   4   5   3 103   0   1   3  15 |   f = G6
   1   1   8   7   4   1 108  10   0   0 |   g = G7
   0   1   0  10   2   4   4 103   3  13 |   h = G8
   0   3   1   0   1   0   1   5 125   4 |   i = G9
   0   1   3   2  15  19   2   9   0  89 |   j = G0

