

REPTree
============

fingersAreas < 15.7
|   Max_X < 0.01
|   |   silhouette15 < 153.81
|   |   |   silhouette29 < 217.25
|   |   |   |   cellOccupancyNonZ13 < 1745.5
|   |   |   |   |   silhouette11 < 212.17 : G2 (72/2) [45/8]
|   |   |   |   |   silhouette11 >= 212.17 : G1 (4/3) [1/0]
|   |   |   |   cellOccupancyNonZ13 >= 1745.5
|   |   |   |   |   cellOccupancyAvg39 < 18.41 : G3 (6/3) [3/2]
|   |   |   |   |   cellOccupancyAvg39 >= 18.41 : G2 (4/0) [0/0]
|   |   |   silhouette29 >= 217.25 : G4 (10/4) [3/1]
|   |   silhouette15 >= 153.81
|   |   |   cellOccupancyNonZ27 < 2446.5
|   |   |   |   silhouette16 < 166.3 : G2 (6/1) [6/3]
|   |   |   |   silhouette16 >= 166.3 : G3 (7/0) [7/1]
|   |   |   cellOccupancyNonZ27 >= 2446.5 : G1 (92/4) [45/3]
|   Max_X >= 0.01
|   |   cellOccupancyAvg20 < 13.54
|   |   |   cellOccupancyNonZ14 < 791.5
|   |   |   |   silhouette2 < 82.25 : G5 (17/7) [9/4]
|   |   |   |   silhouette2 >= 82.25
|   |   |   |   |   silhouette1 < 146.86 : G6 (6/0) [8/4]
|   |   |   |   |   silhouette1 >= 146.86 : G7 (4/1) [2/1]
|   |   |   cellOccupancyNonZ14 >= 791.5 : G9 (80/3) [41/3]
|   |   cellOccupancyAvg20 >= 13.54
|   |   |   fingersAreas < 8.41 : G3 (70/3) [30/3]
|   |   |   fingersAreas >= 8.41
|   |   |   |   Max_X < 0.49 : G6 (7/2) [4/3]
|   |   |   |   Max_X >= 0.49 : G9 (7/2) [4/1]
fingersAreas >= 15.7
|   fingersAreas < 38.44
|   |   cellOccupancyNonZ5 < 4.5
|   |   |   fingersAreas < 24.74
|   |   |   |   cellOccupancyAvg52 < 1.21
|   |   |   |   |   fingersAreas < 19.03
|   |   |   |   |   |   cellOccupancyNonZ18 < 58
|   |   |   |   |   |   |   Max_X < 0.33
|   |   |   |   |   |   |   |   Max_Y < 1.1 : G2 (2/0) [1/1]
|   |   |   |   |   |   |   |   Max_Y >= 1.1 : G4 (2/0) [3/0]
|   |   |   |   |   |   |   Max_X >= 0.33 : G5 (2/0) [0/0]
|   |   |   |   |   |   cellOccupancyNonZ18 >= 58 : G6 (48/3) [15/3]
|   |   |   |   |   fingersAreas >= 19.03 : G6 (53/34) [21/11]
|   |   |   |   cellOccupancyAvg52 >= 1.21
|   |   |   |   |   silhouette7 < 142.49
|   |   |   |   |   |   cellOccupancyNonZ51 < 2236.5 : G0 (40/0) [16/2]
|   |   |   |   |   |   cellOccupancyNonZ51 >= 2236.5 : G6 (2/1) [1/0]
|   |   |   |   |   silhouette7 >= 142.49
|   |   |   |   |   |   cellOccupancyNonZ9 < 19 : G6 (12/2) [14/4]
|   |   |   |   |   |   cellOccupancyNonZ9 >= 19 : G0 (6/1) [2/1]
|   |   |   fingersAreas >= 24.74
|   |   |   |   Max_X < 0.44
|   |   |   |   |   silhouette16 < 136.28 : G5 (63/4) [34/6]
|   |   |   |   |   silhouette16 >= 136.28 : G3 (4/3) [3/2]
|   |   |   |   Max_X >= 0.44
|   |   |   |   |   cellOccupancyNonZ40 < 504.5 : G7 (13/5) [3/2]
|   |   |   |   |   cellOccupancyNonZ40 >= 504.5
|   |   |   |   |   |   cellOccupancyNonZ50 < 75 : G0 (15/1) [10/1]
|   |   |   |   |   |   cellOccupancyNonZ50 >= 75 : G3 (5/4) [4/2]
|   |   cellOccupancyNonZ5 >= 4.5
|   |   |   silhouette14 < 121.64
|   |   |   |   Max_X < 0.25
|   |   |   |   |   Max_Y < 1.08 : G8 (4/0) [2/0]
|   |   |   |   |   Max_Y >= 1.08 : G4 (12/0) [7/0]
|   |   |   |   Max_X >= 0.25 : G8 (67/6) [32/2]
|   |   |   silhouette14 >= 121.64
|   |   |   |   silhouette29 < 193.28 : G0 (19/8) [5/3]
|   |   |   |   silhouette29 >= 193.28 : G8 (23/8) [13/7]
|   fingersAreas >= 38.44
|   |   Max_X < 0.12 : G4 (60/2) [27/1]
|   |   Max_X >= 0.12
|   |   |   cellOccupancyNonZ60 < 10.5
|   |   |   |   fingersAreas < 64.85
|   |   |   |   |   cellOccupancyAvg20 < 13.41 : G4 (10/4) [5/1]
|   |   |   |   |   cellOccupancyAvg20 >= 13.41 : G3 (9/3) [2/2]
|   |   |   |   fingersAreas >= 64.85 : G7 (9/1) [7/2]
|   |   |   cellOccupancyNonZ60 >= 10.5
|   |   |   |   silhouette17 < 93.97 : G8 (3/0) [2/0]
|   |   |   |   silhouette17 >= 93.97 : G7 (58/1) [30/1]

Size of the tree : 79

Time taken to build model: 0.4 seconds
Time taken to test model on training data: 0.08 seconds

=== Error on training data ===

Correctly Classified Instances        1183               84.5    %
Incorrectly Classified Instances       217               15.5    %
Kappa statistic                          0.8278
Mean absolute error                      0.0462
Root mean squared error                  0.1519
Relative absolute error                 25.6512 %
Root relative squared error             50.647  %
Total Number of Instances             1400     


=== Detailed Accuracy By Class ===

                 TP Rate  FP Rate  Precision  Recall   F-Measure  MCC      ROC Area  PRC Area  Class
                 0.943    0.008    0.930      0.943    0.936      0.929    0.993     0.927     G1
                 0.864    0.012    0.890      0.864    0.877      0.863    0.981     0.867     G2
                 0.871    0.022    0.813      0.871    0.841      0.824    0.987     0.887     G3
                 0.900    0.010    0.906      0.900    0.903      0.893    0.986     0.925     G4
                 0.743    0.017    0.832      0.743    0.785      0.764    0.971     0.795     G5
                 0.886    0.053    0.649      0.886    0.749      0.728    0.973     0.787     G6
                 0.800    0.011    0.889      0.800    0.842      0.827    0.985     0.896     G7
                 0.879    0.018    0.842      0.879    0.860      0.844    0.990     0.890     G8
                 0.879    0.007    0.932      0.879    0.904      0.895    0.992     0.915     G9
                 0.686    0.013    0.850      0.686    0.759      0.740    0.972     0.820     G0
Weighted Avg.    0.845    0.017    0.853      0.845    0.846      0.831    0.983     0.871     


=== Confusion Matrix ===

   a   b   c   d   e   f   g   h   i   j   <-- classified as
 132   2   3   1   1   0   0   1   0   0 |   a = G1
   3 121   0   2   8   4   0   0   2   0 |   b = G2
   4   2 122   0   1   3   0   7   1   0 |   c = G3
   1   0   1 126   1   4   2   1   3   1 |   d = G4
   0   6   5   1 104  19   2   0   2   1 |   e = G5
   1   3   2   0   3 124   0   0   1   6 |   f = G6
   1   2   6   4   0   0 112   8   0   7 |   g = G7
   0   0   4   2   0   2   7 123   0   2 |   h = G8
   0   0   2   3   0   5   2   5 123   0 |   i = G9
   0   0   5   0   7  30   1   1   0  96 |   j = G0



=== Stratified cross-validation ===

Correctly Classified Instances        1057               75.5    %
Incorrectly Classified Instances       343               24.5    %
Kappa statistic                          0.7278
Mean absolute error                      0.0633
Root mean squared error                  0.1985
Relative absolute error                 35.1911 %
Root relative squared error             66.1806 %
Total Number of Instances             1400     


=== Detailed Accuracy By Class ===

                 TP Rate  FP Rate  Precision  Recall   F-Measure  MCC      ROC Area  PRC Area  Class
                 0.929    0.010    0.915      0.929    0.922      0.913    0.979     0.903     G1
                 0.764    0.032    0.728      0.764    0.746      0.717    0.909     0.684     G2
                 0.686    0.027    0.738      0.686    0.711      0.681    0.914     0.747     G3
                 0.779    0.021    0.801      0.779    0.790      0.767    0.917     0.776     G4
                 0.686    0.032    0.706      0.686    0.696      0.662    0.892     0.646     G5
                 0.657    0.034    0.681      0.657    0.669      0.633    0.892     0.611     G6
                 0.779    0.041    0.677      0.779    0.724      0.693    0.948     0.717     G7
                 0.771    0.021    0.800      0.771    0.785      0.762    0.952     0.763     G8
                 0.864    0.012    0.890      0.864    0.877      0.863    0.958     0.876     G9
                 0.636    0.042    0.627      0.636    0.631      0.590    0.893     0.598     G0
Weighted Avg.    0.755    0.027    0.756      0.755    0.755      0.728    0.925     0.732     


=== Confusion Matrix ===

   a   b   c   d   e   f   g   h   i   j   <-- classified as
 130   3   5   0   0   1   1   0   0   0 |   a = G1
   4 107   9   4   6   5   2   0   0   3 |   b = G2
   6  13  96   2   6   0   9   4   4   0 |   c = G3
   0   6   2 109   4   3   9   3   3   1 |   d = G4
   0  10   2   5  96   7   5   0   1  14 |   e = G5
   0   6   1   6   8  92   2   2   5  18 |   f = G6
   1   2   6   5   2   0 109   8   0   7 |   g = G7
   0   0   2   3   0   2  16 108   1   8 |   h = G8
   0   0   3   2   2   4   2   4 121   2 |   i = G9
   1   0   4   0  12  21   6   6   1  89 |   j = G0

