

REPTree
============

fingersAreas < 15.7
|   silhouette15 < 116.74
|   |   silhouette32 < 140.05
|   |   |   fingersAreas < 2.72
|   |   |   |   cellOccupancyAvg21 < 5.37 : G2 (16/7) [7/6]
|   |   |   |   cellOccupancyAvg21 >= 5.37
|   |   |   |   |   cellOccupancyNonZ34 < 95.5 : G2 (38/0) [27/0]
|   |   |   |   |   cellOccupancyNonZ34 >= 95.5
|   |   |   |   |   |   convexHull2 < 0.09 : G2 (12/0) [8/2]
|   |   |   |   |   |   convexHull2 >= 0.09 : G5 (9/0) [5/1]
|   |   |   fingersAreas >= 2.72
|   |   |   |   silhouette20 < 137
|   |   |   |   |   convexHull2 < 0.1 : G6 (8/0) [4/1]
|   |   |   |   |   convexHull2 >= 0.1 : G5 (4/1) [6/4]
|   |   |   |   silhouette20 >= 137 : G9 (7/3) [7/1]
|   |   silhouette32 >= 140.05
|   |   |   Max_Y < 0.51
|   |   |   |   silhouette10 < 127.61 : G4 (3/1) [1/0]
|   |   |   |   silhouette10 >= 127.61 : G2 (3/1) [0/0]
|   |   |   Max_Y >= 0.51 : G9 (74/0) [32/0]
|   silhouette15 >= 116.74
|   |   cellOccupancyNonZ27 < 3143
|   |   |   cellOccupancyNonZ9 < 307
|   |   |   |   cellOccupancyNonZ20 < 2544.5
|   |   |   |   |   silhouette4 < 173.26 : G9 (5/2) [4/1]
|   |   |   |   |   silhouette4 >= 173.26 : G7 (5/1) [3/0]
|   |   |   |   cellOccupancyNonZ20 >= 2544.5
|   |   |   |   |   cellOccupancyNonZ17 < 874.5 : G3 (70/5) [41/7]
|   |   |   |   |   cellOccupancyNonZ17 >= 874.5 : G2 (5/1) [4/1]
|   |   |   cellOccupancyNonZ9 >= 307 : G2 (22/3) [9/4]
|   |   cellOccupancyNonZ27 >= 3143
|   |   |   silhouette32 < 172.1
|   |   |   |   Max_Y < 0.2 : G1 (20/1) [4/1]
|   |   |   |   Max_Y >= 0.2 : G3 (21/7) [4/1]
|   |   |   silhouette32 >= 172.1 : G1 (70/1) [42/1]
fingersAreas >= 15.7
|   fingersAreas < 38.44
|   |   cellOccupancyNonZ5 < 4.5
|   |   |   fingersAreas < 24.74
|   |   |   |   cellOccupancyAvg52 < 1.21
|   |   |   |   |   convexHull4 < 0.03
|   |   |   |   |   |   cellOccupancyAvg37 < 16.85
|   |   |   |   |   |   |   cellOccupancyAvg30 < 16.38 : G4 (8/3) [4/2]
|   |   |   |   |   |   |   cellOccupancyAvg30 >= 16.38
|   |   |   |   |   |   |   |   convexHull2 < 0.05 : G2 (4/0) [0/0]
|   |   |   |   |   |   |   |   convexHull2 >= 0.05 : G0 (3/0) [2/1]
|   |   |   |   |   |   cellOccupancyAvg37 >= 16.85
|   |   |   |   |   |   |   convexHull1 < 0.08 : G6 (15/3) [2/0]
|   |   |   |   |   |   |   convexHull1 >= 0.08 : G5 (17/2) [5/4]
|   |   |   |   |   convexHull4 >= 0.03
|   |   |   |   |   |   cellOccupancyNonZ35 < 1897.5
|   |   |   |   |   |   |   convexHull2 < 0.09 : G6 (11/1) [5/2]
|   |   |   |   |   |   |   convexHull2 >= 0.09
|   |   |   |   |   |   |   |   silhouette12 < 159.97 : G6 (4/1) [3/1]
|   |   |   |   |   |   |   |   silhouette12 >= 159.97 : G0 (9/0) [2/0]
|   |   |   |   |   |   cellOccupancyNonZ35 >= 1897.5 : G6 (36/0) [17/1]
|   |   |   |   cellOccupancyAvg52 >= 1.21
|   |   |   |   |   convexHull3 < 0.12
|   |   |   |   |   |   convexHull3 < 0.01 : G9 (3/1) [1/0]
|   |   |   |   |   |   convexHull3 >= 0.01 : G0 (38/0) [18/5]
|   |   |   |   |   convexHull3 >= 0.12
|   |   |   |   |   |   cellOccupancyNonZ34 < 1564.5 : G0 (7/0) [3/1]
|   |   |   |   |   |   cellOccupancyNonZ34 >= 1564.5 : G6 (12/0) [11/3]
|   |   |   fingersAreas >= 24.74
|   |   |   |   cellOccupancyNonZ40 < 539
|   |   |   |   |   silhouette4 < 56.59 : G8 (7/2) [3/2]
|   |   |   |   |   silhouette4 >= 56.59 : G7 (9/0) [3/1]
|   |   |   |   cellOccupancyNonZ40 >= 539
|   |   |   |   |   silhouette19 < 131.28 : G5 (68/10) [37/9]
|   |   |   |   |   silhouette19 >= 131.28
|   |   |   |   |   |   Max_Y < 0.9 : G5 (6/3) [3/2]
|   |   |   |   |   |   Max_Y >= 0.9 : G0 (10/2) [8/1]
|   |   cellOccupancyNonZ5 >= 4.5
|   |   |   silhouette14 < 121.64
|   |   |   |   fingersAreas < 19.19
|   |   |   |   |   silhouette2 < 113.15 : G4 (10/0) [8/1]
|   |   |   |   |   silhouette2 >= 113.15 : G9 (5/2) [1/0]
|   |   |   |   fingersAreas >= 19.19
|   |   |   |   |   cellOccupancyNonZ35 < 2310.5 : G8 (62/0) [31/0]
|   |   |   |   |   cellOccupancyNonZ35 >= 2310.5 : G4 (6/4) [1/0]
|   |   |   silhouette14 >= 121.64
|   |   |   |   silhouette29 < 193.28
|   |   |   |   |   cellOccupancyNonZ26 < 834 : G7 (8/2) [2/1]
|   |   |   |   |   cellOccupancyNonZ26 >= 834 : G0 (11/2) [3/1]
|   |   |   |   silhouette29 >= 193.28
|   |   |   |   |   silhouette17 < 131.89 : G7 (3/0) [3/2]
|   |   |   |   |   silhouette17 >= 131.89
|   |   |   |   |   |   convexHull2 < 0.13 : G3 (5/1) [3/1]
|   |   |   |   |   |   convexHull2 >= 0.13 : G8 (15/1) [7/3]
|   fingersAreas >= 38.44
|   |   silhouette16 < 98.24
|   |   |   cellOccupancyNonZ51 < 492 : G4 (55/4) [28/2]
|   |   |   cellOccupancyNonZ51 >= 492 : G8 (8/3) [1/0]
|   |   silhouette16 >= 98.24
|   |   |   cellOccupancyAvg37 < 15.99
|   |   |   |   cellOccupancyNonZ30 < 3040.5
|   |   |   |   |   Max_Y < 1.07 : G7 (3/1) [2/0]
|   |   |   |   |   Max_Y >= 1.07 : G4 (5/0) [0/0]
|   |   |   |   cellOccupancyNonZ30 >= 3040.5 : G3 (9/3) [3/3]
|   |   |   cellOccupancyAvg37 >= 15.99
|   |   |   |   silhouette2 < 128.54
|   |   |   |   |   fingersAreas < 61.65 : G4 (7/0) [3/1]
|   |   |   |   |   fingersAreas >= 61.65 : G7 (7/0) [2/0]
|   |   |   |   silhouette2 >= 128.54 : G7 (55/0) [34/3]

Size of the tree : 105

Time taken to build model: 0.44 seconds
Time taken to test model on training data: 0.11 seconds

=== Error on training data ===

Correctly Classified Instances        1231               87.9286 %
Incorrectly Classified Instances       169               12.0714 %
Kappa statistic                          0.8659
Mean absolute error                      0.0387
Root mean squared error                  0.1392
Relative absolute error                 21.5252 %
Root relative squared error             46.3953 %
Total Number of Instances             1400     


=== Detailed Accuracy By Class ===

                 TP Rate  FP Rate  Precision  Recall   F-Measure  MCC      ROC Area  PRC Area  Class
                 0.943    0.003    0.971      0.943    0.957      0.952    0.997     0.965     G1
                 0.929    0.020    0.839      0.929    0.881      0.869    0.990     0.932     G2
                 0.914    0.022    0.821      0.914    0.865      0.850    0.987     0.860     G3
                 0.864    0.014    0.871      0.864    0.867      0.853    0.989     0.897     G4
                 0.886    0.029    0.775      0.886    0.827      0.808    0.981     0.804     G5
                 0.821    0.010    0.898      0.821    0.858      0.844    0.983     0.890     G6
                 0.914    0.009    0.921      0.914    0.918      0.908    0.992     0.936     G7
                 0.879    0.009    0.918      0.879    0.898      0.887    0.992     0.952     G8
                 0.921    0.008    0.928      0.921    0.925      0.916    0.996     0.967     G9
                 0.721    0.010    0.886      0.721    0.795      0.780    0.973     0.821     G0
Weighted Avg.    0.879    0.013    0.883      0.879    0.879      0.867    0.988     0.902     


=== Confusion Matrix ===

   a   b   c   d   e   f   g   h   i   j   <-- classified as
 132   3   5   0   0   0   0   0   0   0 |   a = G1
   0 130   4   1   4   0   0   0   1   0 |   b = G2
   3   2 128   1   4   0   0   1   0   1 |   c = G3
   0   5   1 121   5   0   3   2   2   1 |   d = G4
   0   5   1   1 124   4   1   2   1   1 |   e = G5
   0   4   4   3   4 115   1   0   3   6 |   f = G6
   1   0   2   6   0   0 128   3   0   0 |   g = G7
   0   0   2   4   0   0   4 123   3   4 |   h = G8
   0   5   4   1   0   0   0   1 129   0 |   i = G9
   0   1   5   1  19   9   2   2   0 101 |   j = G0



=== Stratified cross-validation ===

Correctly Classified Instances        1050               75      %
Incorrectly Classified Instances       350               25      %
Kappa statistic                          0.7222
Mean absolute error                      0.0639
Root mean squared error                  0.1999
Relative absolute error                 35.5252 %
Root relative squared error             66.6361 %
Total Number of Instances             1400     


=== Detailed Accuracy By Class ===

                 TP Rate  FP Rate  Precision  Recall   F-Measure  MCC      ROC Area  PRC Area  Class
                 0.907    0.011    0.901      0.907    0.904      0.893    0.969     0.872     G1
                 0.786    0.031    0.738      0.786    0.761      0.734    0.925     0.709     G2
                 0.707    0.033    0.702      0.707    0.705      0.672    0.925     0.712     G3
                 0.750    0.035    0.705      0.750    0.727      0.696    0.910     0.690     G4
                 0.707    0.030    0.723      0.707    0.715      0.684    0.887     0.707     G5
                 0.621    0.032    0.685      0.621    0.652      0.616    0.897     0.654     G6
                 0.721    0.024    0.771      0.721    0.745      0.719    0.933     0.767     G7
                 0.814    0.021    0.809      0.814    0.811      0.790    0.947     0.760     G8
                 0.871    0.013    0.878      0.871    0.875      0.861    0.973     0.878     G9
                 0.614    0.047    0.593      0.614    0.604      0.559    0.892     0.597     G0
Weighted Avg.    0.750    0.028    0.750      0.750    0.750      0.722    0.926     0.735     


=== Confusion Matrix ===

   a   b   c   d   e   f   g   h   i   j   <-- classified as
 127   3   5   0   1   1   0   1   2   0 |   a = G1
   1 110  11   5   4   4   0   0   2   3 |   b = G2
  11  10  99   5   3   1   5   3   1   2 |   c = G3
   0   7   6 105   3   2  11   4   1   1 |   d = G4
   0  10   3   4  99  10   3   0   3   8 |   e = G5
   1   6   4   4   7  87   1   1   4  25 |   f = G6
   1   1   6  11   2   1 101   7   0  10 |   g = G7
   0   0   1   9   3   0   4 114   1   8 |   h = G8
   0   0   3   3   1   4   1   4 122   2 |   i = G9
   0   2   3   3  14  17   5   7   3  86 |   j = G0

