

REPTree
============

silhouette17 < 135.87
|   silhouette19 < 156.49
|   |   silhouette2 < 91.02
|   |   |   silhouette23 < 130.43
|   |   |   |   silhouette15 < 134.52 : G6 (26/11) [12/8]
|   |   |   |   silhouette15 >= 134.52
|   |   |   |   |   Max_Y < 0.66 : G1 (5/0) [2/1]
|   |   |   |   |   Max_Y >= 0.66 : G3 (10/3) [3/2]
|   |   |   silhouette23 >= 130.43
|   |   |   |   silhouette5 < 87.8
|   |   |   |   |   silhouette8 < 94.53 : G2 (51/12) [28/4]
|   |   |   |   |   silhouette8 >= 94.53
|   |   |   |   |   |   silhouette12 < 109.59 : G2 (18/1) [5/1]
|   |   |   |   |   |   silhouette12 >= 109.59
|   |   |   |   |   |   |   contourDistances109 < 0.39 : G5 (44/1) [19/1]
|   |   |   |   |   |   |   contourDistances109 >= 0.39
|   |   |   |   |   |   |   |   contourDistances7 < 0.64
|   |   |   |   |   |   |   |   |   contourDistances27 < 0.87 : G5 (5/0) [6/4]
|   |   |   |   |   |   |   |   |   contourDistances27 >= 0.87 : G2 (3/1) [3/1]
|   |   |   |   |   |   |   |   contourDistances7 >= 0.64 : G0 (5/2) [1/1]
|   |   |   |   silhouette5 >= 87.8
|   |   |   |   |   Max_Y < 0.83 : G5 (21/1) [8/1]
|   |   |   |   |   Max_Y >= 0.83
|   |   |   |   |   |   contourDistances78 < 0.4
|   |   |   |   |   |   |   contourDistances97 < 0.41 : G5 (15/1) [9/3]
|   |   |   |   |   |   |   contourDistances97 >= 0.41
|   |   |   |   |   |   |   |   silhouette6 < 111.58 : G0 (4/0) [4/1]
|   |   |   |   |   |   |   |   silhouette6 >= 111.58 : G6 (6/1) [4/0]
|   |   |   |   |   |   contourDistances78 >= 0.4 : G6 (31/10) [10/4]
|   |   silhouette2 >= 91.02
|   |   |   silhouette6 < 80.83
|   |   |   |   silhouette13 < 113.28 : G7 (14/7) [6/4]
|   |   |   |   silhouette13 >= 113.28
|   |   |   |   |   contourDistances111 < 0.74 : G0 (42/2) [16/2]
|   |   |   |   |   contourDistances111 >= 0.74 : G6 (5/0) [4/1]
|   |   |   silhouette6 >= 80.83
|   |   |   |   contourDistances97 < 0.4 : G6 (26/3) [14/6]
|   |   |   |   contourDistances97 >= 0.4
|   |   |   |   |   contourDistances68 < 0.57
|   |   |   |   |   |   contourDistances55 < 0.39
|   |   |   |   |   |   |   contourDistances32 < 0.91 : G2 (7/0) [3/2]
|   |   |   |   |   |   |   contourDistances32 >= 0.91 : G6 (2/0) [1/0]
|   |   |   |   |   |   contourDistances55 >= 0.39
|   |   |   |   |   |   |   contourDistances71 < 0.37 : G6 (8/0) [6/2]
|   |   |   |   |   |   |   contourDistances71 >= 0.37 : G0 (7/3) [11/6]
|   |   |   |   |   contourDistances68 >= 0.57
|   |   |   |   |   |   contourDistances29 < 0.44 : G3 (7/0) [1/1]
|   |   |   |   |   |   contourDistances29 >= 0.44
|   |   |   |   |   |   |   Max_Y < 0.76 : G1 (2/1) [1/0]
|   |   |   |   |   |   |   Max_Y >= 0.76 : G7 (3/1) [9/5]
|   silhouette19 >= 156.49
|   |   silhouette16 < 87.72
|   |   |   silhouette2 < 152.5
|   |   |   |   silhouette4 < 135.58 : G4 (47/0) [27/0]
|   |   |   |   silhouette4 >= 135.58 : G9 (2/0) [2/0]
|   |   |   silhouette2 >= 152.5
|   |   |   |   contourDistances6 < 0.62 : G8 (15/2) [5/2]
|   |   |   |   contourDistances6 >= 0.62 : G9 (25/0) [7/0]
|   |   silhouette16 >= 87.72
|   |   |   silhouette21 < 204.61
|   |   |   |   silhouette11 < 94 : G7 (5/0) [3/2]
|   |   |   |   silhouette11 >= 94
|   |   |   |   |   silhouette17 < 88.55 : G9 (2/0) [2/0]
|   |   |   |   |   silhouette17 >= 88.55 : G2 (9/0) [10/9]
|   |   |   silhouette21 >= 204.61
|   |   |   |   silhouette4 < 74.29 : G0 (15/3) [4/1]
|   |   |   |   silhouette4 >= 74.29 : G3 (5/3) [5/2]
silhouette17 >= 135.87
|   silhouette15 < 112.98
|   |   contourDistances145 < 0.6
|   |   |   contourDistances76 < 0.72
|   |   |   |   contourDistances19 < 0.63
|   |   |   |   |   contourDistances10 < 0.55
|   |   |   |   |   |   contourDistances8 < 0.45 : G8 (6/2) [3/0]
|   |   |   |   |   |   contourDistances8 >= 0.45 : G7 (6/0) [2/1]
|   |   |   |   |   contourDistances10 >= 0.55 : G9 (6/0) [1/0]
|   |   |   |   contourDistances19 >= 0.63
|   |   |   |   |   contourDistances1 < 0.51 : G8 (48/1) [25/3]
|   |   |   |   |   contourDistances1 >= 0.51 : G2 (4/2) [3/2]
|   |   |   contourDistances76 >= 0.72 : G4 (20/0) [14/2]
|   |   contourDistances145 >= 0.6 : G9 (50/4) [27/5]
|   silhouette15 >= 112.98
|   |   silhouette11 < 135.86
|   |   |   silhouette25 < 189.72
|   |   |   |   contourDistances138 < 0.59
|   |   |   |   |   contourDistances64 < 0.67
|   |   |   |   |   |   contourDistances35 < 0.66 : G3 (14/7) [10/5]
|   |   |   |   |   |   contourDistances35 >= 0.66 : G7 (49/0) [21/2]
|   |   |   |   |   contourDistances64 >= 0.67
|   |   |   |   |   |   silhouette1 < 57.98 : G4 (4/0) [0/0]
|   |   |   |   |   |   silhouette1 >= 57.98
|   |   |   |   |   |   |   silhouette1 < 201.21 : G8 (3/1) [4/3]
|   |   |   |   |   |   |   silhouette1 >= 201.21 : G7 (3/1) [0/0]
|   |   |   |   contourDistances138 >= 0.59 : G0 (11/7) [4/3]
|   |   |   silhouette25 >= 189.72
|   |   |   |   Max_Y < 0.97 : G3 (54/6) [25/4]
|   |   |   |   Max_Y >= 0.97
|   |   |   |   |   silhouette19 < 138.47 : G7 (7/1) [3/1]
|   |   |   |   |   silhouette19 >= 138.47 : G8 (14/6) [3/2]
|   |   silhouette11 >= 135.86
|   |   |   Max_Y < 0.07 : G1 (71/1) [39/0]
|   |   |   Max_Y >= 0.07
|   |   |   |   silhouette13 < 217.25
|   |   |   |   |   Max_Y < 0.93 : G3 (30/15) [9/4]
|   |   |   |   |   Max_Y >= 0.93
|   |   |   |   |   |   contourDistances86 < 0.47 : G8 (8/1) [8/6]
|   |   |   |   |   |   contourDistances86 >= 0.47 : G7 (15/10) [9/7]
|   |   |   |   silhouette13 >= 217.25
|   |   |   |   |   silhouette1 < 99.15 : G2 (2/1) [1/0]
|   |   |   |   |   silhouette1 >= 99.15 : G1 (16/0) [5/0]

Size of the tree : 111

Time taken to build model: 0.51 seconds
Time taken to test model on training data: 0.12 seconds

=== Error on training data ===

Correctly Classified Instances        1138               81.2857 %
Incorrectly Classified Instances       262               18.7143 %
Kappa statistic                          0.7921
Mean absolute error                      0.0553
Root mean squared error                  0.1663
Relative absolute error                 30.733  %
Root relative squared error             55.4374 %
Total Number of Instances             1400     


=== Detailed Accuracy By Class ===

                 TP Rate  FP Rate  Precision  Recall   F-Measure  MCC      ROC Area  PRC Area  Class
                 0.986    0.002    0.979      0.986    0.982      0.980    0.999     0.991     G1
                 0.793    0.029    0.755      0.793    0.774      0.748    0.965     0.760     G2
                 0.864    0.041    0.699      0.864    0.773      0.750    0.977     0.788     G3
                 0.786    0.002    0.982      0.786    0.873      0.867    0.972     0.895     G4
                 0.821    0.010    0.906      0.821    0.861      0.848    0.983     0.886     G5
                 0.779    0.037    0.703      0.779    0.739      0.709    0.964     0.742     G6
                 0.807    0.033    0.729      0.807    0.766      0.740    0.976     0.856     G7
                 0.807    0.023    0.796      0.807    0.801      0.779    0.977     0.842     G8
                 0.821    0.007    0.927      0.821    0.871      0.860    0.989     0.905     G9
                 0.664    0.025    0.750      0.664    0.705      0.675    0.961     0.762     G0
Weighted Avg.    0.813    0.021    0.823      0.813    0.815      0.796    0.976     0.843     


=== Confusion Matrix ===

   a   b   c   d   e   f   g   h   i   j   <-- classified as
 138   0   0   0   0   1   0   1   0   0 |   a = G1
   1 111   8   0   2   6   4   2   0   6 |   b = G2
   1   3 121   0   0   1   7   5   0   2 |   c = G3
   0   9   2 110   0   6   3   5   3   2 |   d = G4
   0   4   2   0 115  13   1   0   0   5 |   e = G5
   0   7   3   0   6 109   2   2   1  10 |   f = G6
   0   1  17   0   0   4 113   2   2   1 |   g = G7
   0   5   9   2   0   1   5 113   3   2 |   h = G8
   0   3   0   0   0   1   9   9 115   3 |   i = G9
   1   4  11   0   4  13  11   3   0  93 |   j = G0



=== Stratified cross-validation ===

Correctly Classified Instances         921               65.7857 %
Incorrectly Classified Instances       479               34.2143 %
Kappa statistic                          0.6198
Mean absolute error                      0.0839
Root mean squared error                  0.2306
Relative absolute error                 46.5859 %
Root relative squared error             76.8617 %
Total Number of Instances             1400     


=== Detailed Accuracy By Class ===

                 TP Rate  FP Rate  Precision  Recall   F-Measure  MCC      ROC Area  PRC Area  Class
                 0.900    0.013    0.887      0.900    0.894      0.882    0.950     0.853     G1
                 0.686    0.040    0.658      0.686    0.671      0.634    0.866     0.661     G2
                 0.650    0.050    0.591      0.650    0.619      0.575    0.852     0.565     G3
                 0.700    0.017    0.817      0.700    0.754      0.731    0.916     0.746     G4
                 0.686    0.045    0.627      0.686    0.655      0.616    0.910     0.670     G5
                 0.464    0.054    0.489      0.464    0.476      0.420    0.829     0.446     G6
                 0.657    0.033    0.687      0.657    0.672      0.636    0.872     0.618     G7
                 0.636    0.053    0.571      0.636    0.601      0.555    0.868     0.500     G8
                 0.736    0.023    0.780      0.736    0.757      0.732    0.919     0.701     G9
                 0.464    0.052    0.500      0.464    0.481      0.427    0.810     0.413     G0
Weighted Avg.    0.658    0.038    0.661      0.658    0.658      0.621    0.879     0.617     


=== Confusion Matrix ===

   a   b   c   d   e   f   g   h   i   j   <-- classified as
 126   2   6   0   0   1   3   1   1   0 |   a = G1
   1  96   9   2   8   5   2   5   1  11 |   b = G2
   9   3  91   0   1   8   9   7   5   7 |   c = G3
   0   8   4  98   6   4   2  11   5   2 |   d = G4
   0  12   1   0  96  19   3   2   0   7 |   e = G5
   0   9  11   1  22  65   2   5   4  21 |   f = G6
   5   4  12   2   0   3  92  13   4   5 |   g = G7
   1   5   8  10   1   1   9  89   5  11 |   h = G8
   0   2   4   5   0   5   6  14 103   1 |   i = G9
   0   5   8   2  19  22   6   9   4  65 |   j = G0

